64 50
AAA 0.3473678 0.29398918 0.24911101 -0.045625903 -0.31852195 -0.017877173 0.34132203 0.085737064 -0.20646045 0.020848626 -0.41436476 0.22728764 -0.010892915 0.24465828 0.0589688 -0.21588944 -0.04429482 0.11900159 0.19643247 0.028295472 0.023744162 -0.28339005 -0.054594666 -0.47127673 -0.4506897 -0.19333471 -0.07439936 -0.01167981 0.28859496 0.1881114 -0.23673007 -0.082748614 0.016605226 -0.19326165 0.1437608 0.032920256 0.04094143 -0.03374301 0.14840837 0.04994467 -0.03661026 -0.1504381 -0.38902977 -0.108793914 0.035204124 0.29354933 -0.05184176 0.108174264 -0.11552507 0.11093943
TTT 0.06432005 0.18315406 0.28585863 -0.17303838 -0.3945113 -0.17250508 0.17368552 -0.14507915 -0.2861584 0.22033186 -0.05427259 0.2657729 -0.10860453 0.49584612 -0.08617235 -0.06415593 0.06497566 -0.054381393 0.21078573 0.32616547 -0.036712255 0.118067294 0.026139367 -0.20017833 -0.18848756 0.17491867 -0.043382853 0.0904452 0.29772297 -0.07160174 -0.18706839 -0.1102105 -0.1915985 0.07161116 0.27627814 0.0149783855 -0.09998319 0.027861627 0.17405906 0.37713057 -0.037135497 0.286405 -0.40185878 -0.2038046 0.1434226 0.32074755 -0.33429918 -0.21916778 0.06654874 0.2837078
AAT 0.18148096 0.13951837 0.061203547 -0.09023918 -0.40004876 -0.1171651 0.07487104 -0.062596165 -0.46096689 0.0048518036 -0.24487868 0.108850144 0.016050385 0.16067888 0.1283193 -0.15227628 -0.057778046 -0.069004446 0.23305096 0.074551865 -0.20318225 -0.27054307 -0.07861864 -0.43487582 -0.39175722 -0.052697018 -0.06990471 0.011359804 0.23019893 0.24233064 -0.32365224 -0.16748515 -0.11228305 -0.13664566 0.10318116 -0.06877819 -0.015282102 0.029663648 0.23646592 0.22952123 -0.19886588 -0.023796106 -0.19381917 -0.29245865 -0.050007306 0.44857824 -0.030183889 -0.13321914 -0.054305382 0.12441966
AGG 0.28375795 0.11089624 0.37151214 0.09823413 -0.43860984 0.14648871 0.10212338 -0.2538055 -0.038785722 0.15100715 0.048379693 0.060500626 -0.23723191 0.32882318 0.10405835 0.07920925 -0.078854166 -0.16008708 0.16900684 -0.025319647 0.051788628 -0.23862064 -0.2455961 -0.28466994 -0.07079828 -0.039308768 -0.16200763 -0.27542406 0.4433874 0.10083455 -0.10081901 -0.20788425 -0.16738324 -0.29719096 0.045165066 -0.15772915 0.25097585 -0.13107269 -0.00080188725 -0.059655603 -0.26857328 -0.008363261 -0.1853964 -0.121900246 0.21091 0.19458465 -0.06702151 0.1254793 -0.0804231 -0.11923914
GAG 0.21148808 0.20468003 0.22277692 0.01464816 -0.085273884 0.0553818 0.3778361 -0.16158731 -0.091676556 0.11560082 -0.16952142 0.08235948 0.05899061 0.51003295 0.05638415 0.12633666 0.2913566 -0.15094626 0.06565728 0.0158237 -0.034138177 -0.102287896 -0.07477701 -0.01382458 -0.3394768 0.08073773 -0.17246552 -0.14478704 0.22355588 0.17777248 -0.014664588 -0.36497256 0.14555413 -0.32539472 0.082446665 -0.09239894 0.24249072 -0.21269323 0.10840417 -0.09843857 -0.072493985 -0.13855042 -0.08264507 -0.10672983 -0.21566612 0.14918566 -0.08373502 -0.19022074 -0.14101934 0.18904541
ATA 0.24703343 -0.007112455 0.059853934 -0.16631402 -0.12917311 -0.17134282 0.23516597 -0.31904688 -0.24574631 0.02486878 -0.22753783 0.08954926 -0.11863404 0.55765814 -0.03843488 -0.29688424 -0.10807198 0.060411725 0.23607276 0.082632095 0.08896675 -0.17540568 -0.09811769 -0.4256445 -0.18327105 -0.11017126 0.021980222 -0.011223729 0.37224656 0.30603123 0.03762155 -0.2999348 -0.12244585 -0.03610743 -0.23155291 0.06382699 0.08647639 -0.043386802 0.33473873 0.30294442 0.011404834 0.00082142925 -0.26255238 -0.04526426 -0.07975775 0.38253587 -0.08687921 -0.13334961 -0.25952426 0.09778306
CAA 0.23139465 0.1401091 0.25356445 -0.061492745 -0.30574968 0.06894781 0.29445723 -0.04098552 -0.31602907 -0.10431221 -0.22196178 0.051081795 -0.02049265 0.47344247 -0.18289572 -0.106307946 0.064444974 0.22097199 0.19373578 -0.060397726 0.10118267 -0.18132623 0.046586853 -0.35801104 -0.39168802 -0.12043597 -0.03566851 0.055582635 0.19833231 0.2814728 0.01810563 -0.14376432 -0.0010981167 0.07118891 0.024939086 -0.13277175 -0.16639073 -0.12243941 -0.057849023 -0.07026028 0.13589202 -0.17338862 -0.2516921 -0.15858614 0.36682615 0.21807462 -0.15137295 0.15660729 0.15027916 0.004448072
AGA 0.3570843 0.15092546 0.24634084 0.1339458 -0.41734183 0.09731371 0.22103865 -0.16123019 0.020447249 0.31595352 -0.25302207 0.2408811 0.13636975 0.38097557 -0.019473312 0.0443142 -0.12469919 0.05958125 0.36219963 -0.09710062 0.05202334 -0.1404865 -0.12328888 -0.27479368 -0.1887846 -0.08678345 -0.0683601 -0.22673555 0.37122875 0.20997716 0.056366023 -0.2632409 0.07864943 -0.09606937 0.08887317 0.09524807 0.30165425 0.1615657 -0.10628286 0.048942808 -0.10464851 -0.19232894 0.023269951 -0.2499961 0.03744048 0.42270076 0.01672277 -0.09866858 -0.030017022 0.035827264
ATT 0.14909883 0.1445839 0.18056554 -0.19960928 -0.30063152 -0.11095712 0.19875412 -0.19136675 -0.33647212 0.17514865 -0.0049871583 0.18126823 -0.03301597 0.555683 0.21346977 -0.16476452 0.097231254 -0.13089718 0.09439329 0.21298163 0.08981546 -0.19018234 0.023960292 -0.3475832 -0.16229111 -0.059514977 -0.06977003 0.023572473 0.33425498 0.28824943 -0.040640105 -0.15040725 -0.08930557 0.0945281 0.03666314 0.05539861 -0.062280387 0.19501877 0.18306851 0.2571712 0.09905862 0.29464465 -0.22998974 -0.15733838 0.1058394 0.30144832 -0.2870013 -0.1936466 -0.17077105 0.15341935
AAG 0.16272528 0.19780537 0.043870516 -0.049498662 -0.21785553 0.10250857 0.39996138 -0.1775251 -0.16520342 -0.041110914 -0.3991194 0.28698647 0.0748509 0.2849214 0.17465198 0.19761524 0.13013552 -0.10491577 0.1187893 0.16859603 -0.01073339 -0.24525778 -0.017433356 -0.36466753 -0.36578 -0.054354668 -0.26124695 -0.15804806 0.30540594 0.13239332 -0.1402995 -0.20928325 0.04265717 -0.17365542 0.0333131 0.014900153 0.002283143 -0.06599412 0.15004632 -0.1229555 -0.034622468 -0.26587513 -0.34543893 -0.20542952 -0.24345692 0.24685895 -0.011160736 -0.03965913 -0.13663797 -0.004350139
GAA 0.39368668 0.32180214 0.2816891 0.070767276 -0.05638187 -0.057513405 0.43489453 0.05319681 -0.15772122 0.15704498 -0.23960671 0.07670772 -0.058476064 0.46328148 -0.061169993 -0.19607867 0.26140693 0.027745223 0.18110284 -0.19032572 -0.0013167959 -0.1409519 -0.12145827 -0.16289051 -0.40525034 -0.06597373 -0.045817636 0.07199732 0.20615357 0.17017113 -0.10041469 -0.22813201 0.15809096 -0.2673838 0.09445102 -0.09896877 0.34663332 -0.14910834 0.061166674 0.027406385 -0.03200391 -0.02170502 -0.14344403 -0.1592894 0.10253465 0.1780948 -0.030426845 0.08049355 -0.12189532 0.29183862
TAT 0.0346296 -0.001236518 0.072411105 -0.06082784 -0.389551 -0.047709208 0.1463579 -0.2246938 -0.32981175 0.03555723 -0.1295368 0.12895684 0.028019067 0.41079655 0.05635208 -0.29422247 -0.11439619 -0.015040591 0.2071539 0.033583123 -0.4067269 -0.27635208 -0.20692778 -0.35193723 -0.23284292 0.04541571 -0.030025497 0.07890528 0.20805956 0.045941748 -0.016594412 -0.2976009 -0.32946435 -0.108307324 0.03328687 0.14198197 0.016230915 -0.14191787 0.33585265 0.4039861 0.14997643 0.14946613 -0.073049575 -0.15251003 0.149015 0.47123563 -0.06265059 -0.19642916 -0.008584381 0.19655862
GCA 0.3103971 0.071311265 0.06834008 0.21417013 -0.28696266 0.06242312 0.3473487 -0.27787837 -0.07375427 -0.09750118 0.079339564 0.1844402 -0.19823237 0.16714177 -0.09951447 -0.1077332 0.14500731 -0.008250345 0.21717785 0.14853463 0.0077077667 -0.3990537 0.20801671 0.0146205155 -0.2885683 -0.06525515 -0.1541605 0.1710461 0.002778228 0.07894788 -0.2841496 -0.16141969 0.067542896 0.09819155 -0.28484663 -0.04173141 0.27387318 0.012064068 0.2095312 0.18028857 0.11267432 -0.18399045 -0.13825408 -0.16791725 0.13484919 0.45696014 -0.3414186 -0.13524605 0.07242906 0.01678358
GGA 0.33453044 0.13939106 -0.08842128 -0.028708503 -0.345893 -0.071928516 0.40882993 -0.051442336 0.14257982 0.1394851 -0.085807115 0.07578183 0.18340985 0.46143383 -0.021601228 0.12741622 -0.1832154 0.10190525 0.19607365 -0.09102077 -0.1438843 -0.023067864 -0.19665024 -0.0131624825 -0.15228787 0.026371535 -0.24348903 0.08868882 0.5189236 0.3312752 -0.17428721 -0.06881587 0.26516196 -0.26708737 0.15478165 0.14384654 0.04349646 -0.021301335 0.14110474 0.027144257 0.013310385 -0.109421864 0.13870586 -0.17643483 0.058385555 0.324489 -0.16931964 -0.082456574 -0.13492152 0.19117129
ATG 0.33910835 -0.19122599 0.17951165 -0.18933904 -0.120530486 0.057414625 0.27328673 -0.23716702 -0.122125246 0.21241331 -0.05163532 -0.19678499 -0.15446816 0.47112083 0.27568352 -0.0062257927 0.093498036 -0.08723676 0.14836508 0.14800678 -0.11536086 -0.13120447 -0.07827723 -0.32955047 -0.26146263 -0.19513091 -0.29349113 0.18757473 0.25056154 0.26589847 0.06401923 -0.227384 -0.12980254 0.07474879 -0.11204202 0.03669568 -0.063893564 0.03547296 0.06923172 0.24822107 0.08116263 0.13292836 -0.16760787 -0.2609535 -0.051102534 0.4042166 -0.06500596 0.08899366 -0.15158734 0.13313413
ACA 0.17848368 0.32222274 0.16843659 0.08426685 -0.19384214 0.019956218 0.30557975 -0.05522915 -0.30089343 0.029510815 -0.13595559 -0.04793347 -0.09497011 0.19896314 0.15609403 -0.1793256 -0.084647834 -0.10398916 0.44659725 -0.09148128 -0.013768991 -0.16839111 0.053486656 -0.090737775 -0.49724784 0.040429246 -0.18119831 0.00885673 0.3328525 0.09299215 0.08017041 -0.32966492 0.13989164 0.13179359 -0.24904466 0.13187404 -0.016027331 0.02848361 0.30228347 0.18405892 -0.037320975 -0.2641046 -0.32642177 -0.18206437 0.20499733 0.31128165 -0.18299979 -0.08997791 0.14050797 -0.11409799
TAA 0.28942162 0.20654051 0.23607452 -0.03402433 -0.30954865 0.06103165 0.40649673 -0.036117166 -0.30283302 0.012626334 -0.28220466 0.29759353 -0.024708943 0.4914209 0.19473052 -0.33884647 -0.15223208 0.21342173 0.21227059 0.013264938 -0.15414912 -0.21059002 -0.052128263 -0.31280172 -0.2225074 -0.17355005 -0.07184034 0.06401934 0.13601978 0.009022408 0.06429412 -0.2411327 -0.24749489 -0.1950394 0.063413635 -0.023922384 -0.0073605347 -0.15696567 0.22711153 0.27841067 0.19933587 0.04003089 -0.2330318 -0.023359986 0.24555428 0.2801263 -0.09439029 0.00626209 -0.015184615 0.23384038
CAT 0.0441731 -0.059841976 0.054279346 -0.13225536 -0.43030947 -0.032831483 -0.018984636 -0.22583893 -0.42751282 -0.11847334 -0.03827067 -0.14872354 0.029293241 0.35772443 -0.29011357 -0.09042683 -0.012091105 -0.005083579 0.18420854 -0.034644533 -0.159809 -0.18574202 -0.10250482 -0.3588926 -0.40516505 0.027129015 -0.031128777 0.10956108 0.14828703 0.32488918 -0.07880353 -0.26831114 -0.1678206 0.14276864 -0.011506735 -0.036341798 -0.16009465 -0.04885802 0.11748526 0.0319019 0.055901755 0.024067828 -0.08512705 -0.3518231 0.2196734 0.42520243 -0.10366452 -0.1261254 0.19989383 0.023659576
TGA 0.2477707 0.15975843 -0.17062421 0.14109412 -0.36361456 -0.056978438 0.42992166 -0.23181954 -0.08933699 0.30970505 -0.36289883 0.064753175 0.13429357 0.5355083 -0.029216886 0.06535596 -0.0020516315 0.08215765 0.20635161 0.10982844 -0.072219744 -0.17675723 -0.23231262 -0.02064345 -0.32721427 -0.23287961 -0.14212643 0.15138018 0.22701687 0.109464236 0.111646235 -0.026146578 -0.109864 0.14270876 0.25261238 -0.0481868 0.14942679 0.17211154 0.2726621 0.18772376 -0.13381532 0.041841198 0.027563876 -0.23060623 0.111078 0.2229089 -0.06366289 -0.15474254 -0.040215205 0.0045245457
AAC 0.20464714 0.49975446 0.047954228 0.16972761 -0.17669176 0.10520701 0.15851691 -0.103208385 -0.15991803 -0.016825525 -0.35768056 0.14429344 0.013042041 0.10220286 -0.014349759 -0.318214 0.008447146 0.10622327 0.11187943 0.08272269 0.083681986 -0.051578425 0.10181502 -0.33359376 -0.47936 -0.15794523 -0.07247773 -0.072758384 0.47906443 0.05951031 -0.2072649 0.0027040637 -0.18921052 -0.0037020785 -0.0847294 0.0056637432 -0.15299928 -0.008882872 0.08394895 0.0710024 -0.16717009 -0.021000544 -0.14609204 -0.23105007 -0.10239833 0.49155256 -0.15445721 0.046859477 -0.16325682 0.056053057
GGC 0.18670061 0.18263134 -0.04169788 -0.06883279 -0.5007112 -0.29654387 0.2161513 0.056947626 0.022598216 -0.09382498 -0.071326956 0.08057623 -0.009361222 0.35247612 0.10434419 0.07795517 0.16191499 0.053758506 0.051247716 -0.05644546 -0.16098993 0.10509646 -0.08111086 -0.06629162 -0.09111606 0.19469507 -0.15121457 0.20885168 0.07272911 0.19935195 -0.16256538 -0.076328814 0.14182493 -0.07179677 -0.13013451 0.048385847 -0.12697269 -0.16736394 0.0575658 0.04836685 0.02113947 0.044791717 -0.037337724 -0.005632501 0.024138859 0.42994365 -0.37283814 0.17861529 -0.12846084 -0.08575508
TTA 0.20887263 0.07927945 0.16304192 -0.104248784 -0.29664454 -0.15525287 0.19700794 -0.28489193 -0.32965547 0.018524263 -0.29346535 0.30555198 -0.22932433 0.54708725 -0.16080752 -0.10025782 -0.16421594 0.059564054 0.25807527 0.24343596 -0.037880275 0.1469041 -0.03764339 -0.12929092 -0.12067787 -0.013973612 0.090892665 0.15467718 0.27337578 -0.0036437958 -0.012077746 -0.22638637 -0.11191452 -0.05393201 0.020962575 -0.16215484 -0.08819053 -0.15494229 0.28000858 0.3479367 -0.18857577 -0.015388093 -0.36101854 -0.037094012 -0.0029291832 0.47155166 -0.09730047 -0.17311163 -0.005361768 0.24511804
TTG 0.2767024 -0.12173813 0.29090798 -0.15688169 -0.23996376 0.050990712 0.22887117 -0.26505625 -0.11034695 0.22270915 -0.11895264 0.015933415 -0.19899215 0.40974537 0.07494657 0.12454454 0.03471384 -0.062674545 0.19891325 0.27395317 -0.2801633 0.15799423 -0.13225088 -0.10872345 -0.2641688 -0.07972089 -0.19390716 0.2211888 0.13165389 -0.10136 -0.051184226 -0.09018723 -0.22592527 -0.028337765 0.1943349 -0.028419785 -0.17154488 -0.03867574 0.061705016 0.30555078 -0.12722132 0.015277551 -0.25518274 -0.2840481 0.033795286 0.48548195 -0.12900455 0.070560805 0.16427857 0.34179375
TCA 0.14834774 0.289592 0.04340192 0.014301984 -0.47073692 -0.14979115 0.2222136 -0.3406807 -0.19122724 -0.077183664 -0.1563181 0.079665504 -0.14060067 0.12715314 -0.1020552 -0.12266937 -0.12660474 -0.13108577 0.3254019 0.03488003 0.10638154 -0.22385745 0.2121237 0.026599824 -0.38108775 -0.067821704 -0.21271004 -0.13501213 0.16539383 0.20281713 0.13934383 -0.31606892 -0.06124737 0.075402975 -0.102060735 0.16791409 -0.034846563 -0.086818874 0.106513806 0.34449562 0.010640982 0.022574387 -0.28616256 -0.30226356 0.12115667 0.16201372 -0.18435973 0.14049171 0.16967742 0.44893292
GAT 0.16809343 0.1825308 0.08414872 -0.0046615987 -0.17857005 -0.13476245 0.09511951 -0.22307485 -0.3850702 0.16603719 -0.07226165 -0.030818798 -0.074677475 0.36609447 -0.052001197 -0.15480466 0.24021068 -0.22680755 0.17932002 -0.13150854 -0.3154519 -0.0951604 -0.23614697 -0.13630445 -0.34058398 0.10990902 0.012913257 0.12818569 0.16737309 0.28569975 -0.11786163 -0.3550275 0.0018546423 -0.22872698 0.08139093 -0.13901761 0.2526547 -0.028229358 0.11931462 0.14527693 -0.072899416 0.20958978 0.06635068 -0.25871214 0.033615798 0.34337175 0.071802646 -0.18601616 -0.10654034 0.2759493
AGC 0.25147846 0.17321664 0.3076533 0.08065866 -0.5562908 -0.09065068 -0.051371682 0.012647081 -0.1302654 0.101966076 -0.4094471 0.25314462 -0.045743007 0.3000766 0.1259358 0.028862095 0.2787978 -0.06574069 0.12725179 -0.15912744 0.047451235 -0.04912484 -0.14268577 -0.30127022 -0.076453544 0.0045971107 0.060101867 -0.102820896 0.006950455 0.111231565 0.0047758645 -0.19727245 -0.041110605 -0.017280562 -0.3739465 0.07484038 0.09179401 0.021314362 -0.055884615 0.15060595 -0.05651637 -0.066236824 -0.13536964 -0.070663445 0.1456244 0.5245785 -0.217776 0.09187813 0.061594237 -0.03852472
TAG 0.054719795 0.11829367 0.11555821 -0.11629094 -0.29521027 0.20865451 0.34469056 -0.26085037 -0.23071538 0.012585981 -0.29137295 0.37194094 0.07385208 0.53875226 0.24618821 0.061978467 -0.0016684659 -0.005477901 0.14140542 0.11804392 -0.19267005 -0.24326363 -0.032502696 -0.18179421 -0.2176902 -0.08891254 -0.19948727 -0.054971613 0.16335537 -0.11155618 0.12780924 -0.38968986 -0.26220217 -0.21055037 0.006084866 0.058558684 -0.09413183 -0.2627791 0.2960706 0.096558765 0.23489408 -0.03685891 -0.19173841 0.038678218 -0.09037475 0.27301028 -0.08448541 -0.2754202 -0.048644003 0.11392729
CAG -0.0030358608 0.04593904 0.059180386 -0.08863149 -0.30781627 0.17456746 0.23040807 -0.23387156 -0.15857114 -0.0834257 -0.259219 0.03436211 0.13353224 0.53689057 -0.13607408 0.19296329 0.22589472 -0.039897647 0.15521654 0.088726945 0.099121235 -0.24803606 0.11037978 -0.19806477 -0.371775 -0.08122356 -0.14749905 -0.03502661 0.20712441 0.18955632 -0.04452086 -0.24169274 -0.036848042 0.093867026 -0.12382881 -0.083073094 -0.21903424 -0.21338814 0.050037775 -0.22882944 0.05666973 -0.22139323 -0.24408332 -0.13309225 0.061835807 0.19977768 -0.12068158 -0.1325572 0.21140096 0.041303728
ATC 0.15019017 0.23482019 0.12227873 -0.21380503 -0.09320604 0.053988557 0.12317308 -0.3657696 -0.33161137 -0.026672289 -0.30284315 -0.02428388 0.24024528 0.32088366 0.005557365 -0.30714247 -0.0021274486 -0.17289646 0.4388856 0.029557582 0.035127815 -0.05508596 0.17397016 -0.27008685 0.018738788 -0.07792586 -0.13887817 0.12196308 0.11624964 0.44833198 -0.11657745 -0.32889324 -0.1991848 0.12670808 0.020311302 -0.057910066 0.007995399 0.14142147 0.022936152 0.20967437 0.09405855 0.13432288 -0.2083647 -0.19032927 0.15603916 0.20689534 -0.24415158 0.01034252 -0.33326527 0.051387824
AGT 0.41886955 0.095268436 0.25114137 -0.019632325 -0.3508126 0.04936258 -0.07070193 -0.31986114 -0.2201291 -0.031306203 -0.14817563 0.11626322 -0.02752294 0.38253558 0.22454737 0.24780993 -0.06238022 -0.14362133 0.3807705 -0.16183637 0.061569847 -0.13593963 0.019548543 -0.33835977 -0.33324167 -0.0109949475 0.19994386 -0.19757548 0.30547214 -0.16008705 0.07866267 -0.106193006 -0.20319359 -0.0582669 -0.011995225 -0.11019237 0.16166739 0.11307545 0.1231856 0.061261266 0.062438942 -0.055994865 -0.15538785 -0.08270345 0.26442677 0.4864439 -0.106562965 -0.08438055 -0.13685147 0.35340524
TGG 0.081301175 0.07014297 0.04944051 0.034300778 -0.39869034 0.07601448 0.27589446 -0.16781111 -0.09184842 0.0030848728 0.014601258 0.015538854 -0.20144174 0.49769157 -0.011819327 0.10085114 -0.014276514 -0.16831686 -0.024154251 0.27660078 -0.018157518 -0.15494314 -0.34173673 0.01099049 -0.25958645 -0.15381235 -0.26002878 0.041629072 0.15970302 0.119539574 0.040572476 -0.03411469 -0.32921866 -0.075620264 0.2406492 -0.21103023 0.1863099 -0.074685 0.4971249 0.10182 -0.28414732 0.14259952 -0.2493665 -0.19540249 0.27779952 0.07558294 -0.04888893 0.106297314 -0.17471676 -0.0040771547
CCA 0.16815692 0.06290413 0.049603663 0.25207695 -0.042083234 0.052967813 0.1520243 -0.15557688 -0.21267305 0.098149024 -0.16089566 0.24985869 -0.006675752 -0.02646081 -0.20468754 0.07907718 -0.08076327 -0.007741319 0.36565006 -0.043760907 -0.071825445 -0.24837899 -0.0004684972 -0.118432485 -0.55993646 0.10455644 -0.11534008 0.02241118 0.09227381 0.39715475 0.13334198 -0.12227338 -0.01584442 0.0053486214 -0.26361117 -0.06069187 -0.23208916 -0.05230352 0.11887365 0.24277343 0.020822452 0.08036155 -0.4071246 -0.12464604 0.31645438 0.23633648 -0.4602992 0.017678276 -0.012612012 0.08208713
GTA 0.5010313 0.10030217 0.10550922 -0.07489361 -0.23797807 -0.30898407 0.21730565 -0.26635087 -0.021534292 -0.06850093 -0.2236399 0.20390964 0.10335573 0.39086163 -0.10914713 -0.034018613 -0.08562288 -0.03492355 0.06950538 0.06618824 0.050767913 0.016914198 -0.044507463 -0.12390729 -0.34299737 0.07252259 0.03767338 -0.0018888941 0.33566484 0.13911 -0.14647561 -0.16438277 -0.26145482 -0.17520659 -0.28184402 -0.18273094 0.008445857 -0.2182633 0.4591473 0.4181982 0.08639019 -0.012346206 -0.18836506 0.0130202295 0.12807427 0.34366968 0.33568975 -0.20907234 0.025726875 -0.027448155
TGT 0.23334584 0.13878424 -0.13714899 -0.19018175 -0.21880302 -0.129738 0.10110749 -0.4261581 -0.1434315 -0.0004344581 -0.20318262 -0.022973131 -0.008285172 0.5193555 0.13037415 0.15663241 0.010040723 -0.24253635 0.17934251 0.098251596 -0.02608226 -0.13391265 -0.15474671 -0.23677026 -0.4948482 -0.14743899 0.031690534 0.19095509 -0.0010681283 -0.21607555 0.059244 0.034235533 -0.2618892 0.1410467 0.17900866 -0.1437975 0.15498586 0.06158038 0.47208127 0.107124254 0.052161667 0.14349559 -0.19632599 -0.1636776 0.30295378 0.35913128 -0.16265021 -0.04513953 -0.09896857 0.343028
TTC 0.036986325 0.23953103 0.29599017 -0.10593707 -0.16907412 0.028276997 0.12517431 -0.34448162 -0.23884183 -0.0064398763 -0.3201167 0.17790973 0.18339087 0.32918802 -0.26001114 -0.15800197 -0.007937794 -0.16219558 0.47681716 0.22349994 -0.16762234 0.14631148 0.09726658 -0.065826625 -0.019821256 0.14523913 -0.07159197 0.18344553 0.082605965 0.05909827 -0.2355582 -0.15865138 -0.2672035 0.12110725 0.30485266 -0.010487949 -0.07714954 -0.03728399 0.09528429 0.3180187 -0.07786833 0.041406415 -0.3680086 -0.21457012 0.25831863 0.33372912 -0.26193053 -0.010660128 -0.02844653 0.2222355
ACT 0.13796373 0.3960703 0.048480667 -0.10508835 -0.040207755 0.24563037 0.1639706 -0.24468006 -0.3730663 0.029697917 -0.24144366 0.03692793 -0.049300976 0.5779318 0.22640872 -0.040545665 -0.078258365 -0.14914285 0.23197539 -0.17883874 0.029568024 0.119008 -0.040408634 -0.28854296 -0.34834945 0.015533998 0.0910267 0.12656377 0.20327008 0.090151966 -0.13292353 -0.07096543 -0.025805494 -0.010193634 0.017173048 0.34639958 -0.04025655 -0.030300213 0.23436713 0.43978873 -0.13786082 -0.0063152486 -0.31277016 -0.14388949 0.18367538 0.2974173 -0.0012342514 -0.11182387 0.25758305 -0.1975958
GGT 0.35579568 0.08693113 -0.13097243 -0.17886636 -0.25981766 -0.12258546 0.22015399 -0.18100438 -0.05185753 -0.27152035 0.03396088 -0.013949371 0.08123484 0.49060667 0.23171219 0.25350896 -0.15869218 -0.12739798 0.13869919 -0.07830731 -0.13949427 0.10717172 0.09198182 -0.029351309 -0.26369095 0.16850601 -0.036422934 0.11952233 0.33129266 -0.012662917 -0.184145 0.05103541 0.054854892 -0.1852178 0.085511126 -0.044213545 -0.055585977 -0.048219427 0.27113232 -0.066858776 0.06846807 0.13469966 -0.08424673 -0.08694496 0.2451235 0.41995302 -0.23899849 -0.021001382 -0.26017013 0.50592107
CTA -0.015119933 0.028994204 0.018646257 -0.057140924 -0.24245961 -0.1585686 0.016905615 -0.42662153 -0.15520011 -0.08201433 -0.39828375 0.45648372 -0.30796173 0.4732087 -0.111346535 -0.16132262 -0.085025795 0.22594665 0.17163147 -0.14969881 0.006347346 0.044378757 0.01701565 -0.2678054 -0.3754293 -0.12521759 -0.10537185 0.089784935 0.16528958 0.0087435255 -0.0714355 -0.23490292 0.05390639 -0.110549115 -0.24256743 0.034193926 -0.0657346 -0.18190318 0.24318458 0.2874515 -0.15151392 -0.046499133 -0.16669813 -0.15429032 0.34446913 0.24883401 0.04555762 -0.29179156 -0.23744364 0.024519572
GTG 0.5477991 -0.08469017 0.22757405 -0.09897539 -0.18212077 -0.14864467 0.37210408 -0.16105027 0.03703773 0.111835286 -0.036918726 -0.15430346 0.04801126 0.32557753 0.19653676 0.14631465 0.06297825 -0.021366483 0.017841602 0.16521169 -0.17686278 -0.06068248 -0.14747888 0.0026250703 -0.38136315 -0.0021840928 -0.21532331 0.00050533825 0.15084817 -0.032332312 -0.22630964 -0.12243616 -0.27429515 -0.16794932 -0.11844177 -0.12699215 -0.1611866 0.043443482 0.19913454 0.32609448 0.038434543 0.18711643 -0.07596037 -0.21340676 0.1671271 0.3403543 0.23821136 0.022400746 0.07491143 0.05077476
CTT -0.13601592 0.13710958 0.15693201 -0.08896964 -0.37859046 -0.12016017 0.014055985 -0.29389817 -0.19204277 0.08163648 -0.15668559 0.40902963 -0.17736618 0.4428667 0.039691146 -0.019686654 0.13107245 0.02438538 0.08590896 0.06401669 -0.020902477 -0.0028258224 0.15334111 -0.315 -0.4354406 0.055742834 -0.30149093 0.046477277 0.08903415 -0.01667984 -0.10805964 -0.034918994 0.009193257 0.064061075 0.089273036 0.15219691 -0.14521551 0.087265566 0.07564537 0.32697055 0.0035038453 0.28258455 -0.16519557 -0.39720908 0.52483886 0.13240752 -0.18971606 -0.30945837 -0.11708205 0.08958103
CGA 0.16477671 0.031177126 -0.07526294 0.22204772 -0.38368458 0.09752041 0.48026672 -0.21365653 -0.001118112 0.26696262 -0.13430081 0.09487729 0.19811617 0.2725807 0.09160005 -0.15326622 -0.14153747 0.16360152 0.37333316 0.120185904 -0.014007816 0.16651553 -0.047685105 -0.23117703 -0.47749636 0.04692067 0.14779495 0.008904413 0.13329914 0.19673514 -0.2030887 -0.390914 0.20099439 0.08036719 0.08010216 -0.13029866 -0.08809524 0.048688676 -0.0185937 0.14158997 -0.11396469 0.06042038 0.22213444 -0.015611945 -0.013867802 -0.08736764 -0.085722454 -0.047005143 -0.032888774 0.036510043
GTT 0.33786553 0.224558 0.17844601 -0.16559955 -0.36285618 -0.29272565 0.32561687 -0.07823442 -0.12674841 0.09070248 0.010628339 0.2761674 0.1800917 0.4080993 0.07460331 0.103409305 0.12348933 -0.21094027 0.09025476 0.20687364 0.042666752 -0.013870051 0.008577805 -0.07549227 -0.28989217 0.13742067 -0.13246632 -0.07776409 0.2791085 0.04568734 -0.22474079 -0.06900674 -0.2865972 -0.100763455 -0.015819848 -0.13411464 -0.057528093 0.1223509 0.2624696 0.28159904 0.1298388 0.46198234 -0.11169963 -0.23517528 0.28727952 0.22278416 0.097264506 -0.22724514 0.14717376 0.10084995
TCT 0.046379093 0.38388568 -0.05922865 -0.14172933 -0.39135885 -0.0012499077 0.07366933 -0.45677105 -0.28338033 -0.13047528 -0.20027304 0.13991031 -0.11374189 0.5431177 -0.037010998 -0.04692884 -0.05279173 -0.09554014 0.23749396 0.0070883953 0.05155756 0.06361771 0.07838218 -0.18651175 -0.2925445 -0.029506944 -0.07174994 0.0026874242 -0.05832888 0.255819 -0.105847165 0.059653375 -0.22589496 -0.07722704 0.1161322 0.33891493 0.0042859875 -0.015476722 -0.06381064 0.49409452 0.0031416747 0.34858194 -0.28771785 -0.21450557 0.081276014 0.13553707 0.0058263093 0.049896516 0.2587674 0.30649215
GCG 0.10208197 -0.11494963 -0.029334268 0.19732693 -0.23705979 -0.0348924 0.22197047 -0.21895714 0.2052368 -0.06623146 0.061956342 -0.044217847 -0.024164114 0.30103317 -0.01615313 -0.0034523301 0.12425916 0.1652123 -0.018112384 0.10784531 0.047798473 -0.1343368 0.10240098 -0.087379806 -0.2683306 -0.078979775 0.13085145 0.08868354 0.040629968 0.026875066 -0.30583504 -0.30801904 0.17301734 -0.2793561 0.26596475 -0.21165621 0.10554402 0.20654114 0.13122591 0.10776977 0.13126273 0.06698419 -0.1464147 -0.031383086 0.053999178 0.41084868 -0.1618042 -0.008557901 -0.029641537 -0.14227173
CAC 0.104504324 0.30836755 0.0775263 -0.0051340233 -0.287272 0.17931974 -0.018902995 -0.18352567 -0.15581375 -0.03278629 -0.17958857 -0.1053495 0.09057475 0.30605376 -0.30360788 -0.29564556 -0.073455304 0.22388805 0.042931966 0.11604361 0.20267674 0.021296505 0.071237236 -0.24867229 -0.47193196 -0.099411115 0.019639043 -0.005830084 0.25475565 0.17087378 0.0009441181 -0.021796722 -0.1187728 0.11074038 -0.26275438 -0.0580232 -0.29368168 -0.14522038 0.038436744 0.0010406028 0.08766727 -0.0026572912 -0.0914504 -0.26190472 0.25416973 0.40071496 -0.2976016 -0.05045988 0.08657144 -0.026541969
GGG 0.20153512 0.061955143 0.15549095 -0.107943766 -0.40491292 0.09789908 0.3557896 0.026440008 0.077440545 -0.10502171 0.21638265 0.07920247 -0.17241335 0.39624783 -0.018384865 0.1454598 -0.15173613 -0.12856008 -0.015885724 0.027536051 -0.103465065 0.029714642 -0.2469329 -0.05457858 -0.122425064 0.06713391 -0.31815976 0.003855427 0.448848 0.20640068 -0.1796075 -0.093830466 0.03169334 -0.4096075 0.15674505 0.014192828 0.08994468 -0.15907729 0.32731968 -0.06556358 -0.13403867 0.019028658 -0.063606136 -0.1714715 0.1633982 0.19917071 -0.20621859 0.13843267 -0.27813795 0.080581315
ACC 0.054602236 0.41168386 0.04702721 -0.40792584 -0.18892391 0.22313964 0.2525761 -0.14182177 -0.2854914 0.23160407 0.003671552 0.04372132 0.10677067 0.09278242 -0.027604027 -0.23956254 0.20172514 0.14452578 0.37438604 -0.1604887 -0.079703994 -0.018290563 0.074329 -0.22519095 -0.32628587 -0.016243355 0.072818294 -0.069013655 0.22198923 0.04135879 0.12718154 -0.062318753 0.22382428 0.045652136 -0.08334648 0.07128663 -0.21770471 -0.009960771 0.3317677 0.20598234 -0.2225864 -0.014597772 -0.322358 -0.10075613 0.30368626 0.3970859 0.04893469 0.018854624 -0.023778968 -0.15980722
TGC 0.12729649 0.2164122 -0.08902446 -0.076930515 -0.45478904 -0.2663739 0.17925829 -0.08877924 -0.14280531 0.0861072 -0.4432983 0.019786293 -0.04000791 0.35295475 0.08678663 0.008812105 0.38427094 -0.08781624 -0.02003485 0.14926222 0.012005677 0.016399259 -0.29553202 -0.15044267 -0.2439781 -0.09964203 -0.0931458 0.26209134 -0.2020048 0.1303003 0.104073875 -0.059748683 -0.26693296 0.22405367 -0.13673407 -0.05507365 0.11896464 -0.08651709 0.32239193 0.2407847 -0.07997876 0.0611625 -0.15252224 -0.12053292 0.18481354 0.39185882 -0.31212294 -0.0072703455 0.037695296 -0.028109562
TAC 0.14938688 0.3859994 0.06196754 0.17165025 -0.21956497 0.18026866 0.10334667 -0.27217627 -0.061730154 0.066181555 -0.20139709 0.17375374 0.06255817 0.28543755 0.09079352 -0.4516034 -0.15580507 0.13905588 -0.0017750858 0.056532823 -0.10242925 0.013495815 0.0529578 -0.23577435 -0.35220498 -0.065264724 -0.054813333 0.11349136 0.35367543 -0.08557939 0.13038342 -0.16831346 -0.44066435 0.0071036457 -0.08483267 0.11433715 -0.087309465 -0.2713633 0.23472367 0.35479265 0.25614023 0.12101543 -0.090931326 -0.0739094 0.15810035 0.549176 -0.1585327 -0.12425711 -0.096509516 0.07009482
CGG -0.017662942 -0.081533186 0.11849795 0.16629705 -0.4165649 0.19667585 0.30724785 -0.10568882 0.013410415 0.01204804 0.2060909 0.013639971 -0.07917705 0.29886523 0.11981785 -0.07444735 -0.12560655 -0.020638749 0.12894192 0.24675867 0.008085261 0.14114992 -0.0307072 -0.21335655 -0.46017572 0.18045859 0.06358879 -0.11299084 0.107672505 0.13611987 -0.26827207 -0.29271638 0.07637041 -0.06993118 0.048449475 -0.21020402 -0.06744088 -0.17443013 0.16043903 0.14893842 -0.23979129 0.13124883 -0.10027734 0.08610531 0.16302551 -0.08703225 -0.03690418 0.19872251 -0.18558347 -0.008430584
GAC 0.24015129 0.47935152 0.19155025 0.19052537 0.028652528 -0.020354513 0.14191695 -0.18911731 -0.17002182 0.19166017 -0.122364305 -0.11223164 -0.06498994 0.38698342 -0.15266836 -0.35714146 0.17703289 0.017650057 -0.011171539 0.034175903 0.015399904 0.055655003 -0.024128655 -0.019372458 -0.5423199 -0.009271493 -0.0043839957 -0.02389904 0.33929822 0.029702622 -0.05802406 -0.09073112 0.029830663 -0.15543352 -0.05402641 -0.20772527 0.019427104 -0.063622236 0.04687121 0.16006765 -0.037318278 0.17894231 0.13673031 -0.13121916 -0.08662835 0.2607313 -0.26415086 0.0002051818 -0.21824382 0.14952797
GCT 0.2665033 0.1075929 -0.11527519 0.09480737 -0.2170222 0.31504753 0.22355875 -0.40806478 -0.2389163 -0.111162715 -0.04839778 0.24777439 -0.14753172 0.57069355 0.008766001 0.005354766 0.09927963 -0.009697731 0.026324306 0.037488896 0.013411067 -0.05154932 0.095382795 -0.17411536 -0.07630081 -0.07537303 0.102469206 0.27586487 -0.1605735 0.09058164 -0.43978292 0.0416424 -0.043369614 -0.13673918 -0.12005078 0.077644035 0.2436123 0.032037638 0.045853015 0.28209946 0.050339956 0.16955489 -0.11959866 -0.27098766 0.084736586 0.36725262 -0.1715928 -0.15969951 0.20164113 -0.07821848
CTG 0.13439062 -0.13988324 0.15605272 -0.04178801 -0.18519051 0.06436991 0.13469878 -0.37006202 0.0305967 0.13459256 -0.2873972 0.0013720985 -0.26316485 0.33930838 0.16648373 0.075523004 0.24708258 0.11149407 0.052179568 -0.05165062 -0.17649055 0.056352653 0.031119714 -0.2001673 -0.48323008 -0.19011313 -0.4122723 0.17060483 -0.016985904 -0.03209326 -0.12869206 -0.11736431 -0.106948726 0.0399043 -0.06974625 0.13696487 -0.14993444 -0.0063457014 -0.042935163 0.2899032 -0.1645186 0.001967847 -0.061042093 -0.4140819 0.3969113 0.2531785 -0.011833997 -0.13517302 -0.055696968 0.1995289
TCC 0.07200619 0.31463918 -0.017126903 -0.40160823 -0.48536453 0.0095610805 0.0710213 -0.44394168 -0.17895222 0.03582416 -0.04183036 0.20665447 0.03824772 0.10470312 -0.3419827 -0.1664925 0.25056475 0.184226 0.3421104 -0.09555135 -0.07852563 -0.087228365 0.15276113 -0.21580842 -0.2912257 -0.063721515 0.01785642 -0.101433635 0.06373802 0.16238214 0.17633206 0.06194966 -0.14636895 0.013845436 0.10253653 0.11609088 -0.2029067 -0.08335284 0.13825841 0.5170091 0.062378153 0.13247089 -0.2761632 -0.28471026 0.04495123 0.082141094 -0.0541149 0.19240086 -0.06628116 0.24057783
CTC -0.16735192 0.18857324 0.10625821 -0.17250662 -0.1081637 -0.0050161476 -0.017072598 -0.46868083 -0.16077383 -0.060565908 -0.4356139 0.23004702 0.09756843 0.22687747 -0.16967876 -0.21813028 0.07394316 0.076247014 0.39905167 -0.104979575 -0.089682244 0.066967346 0.17320205 -0.22594148 -0.2255246 0.01168716 -0.25479653 0.065216705 -0.09167234 0.10075472 -0.23633863 -0.14595911 -0.0867749 -0.04253425 0.106000714 0.08321896 -0.13400973 -0.041454203 0.035312768 0.34458882 0.026467055 0.08712397 -0.12124731 -0.36781117 0.5358116 0.026303211 -0.25377324 -0.059986323 -0.2108327 0.022876754
GCC 0.20206511 0.107145466 -0.0011580426 -0.22745886 -0.30394536 0.29907525 0.29983822 -0.3504693 -0.120859504 -0.03709893 0.22273824 0.26598802 0.019478736 0.039634287 -0.24518883 -0.14922152 0.27630386 0.23970093 0.13478881 0.09273882 -0.09782096 -0.06701404 0.094770856 -0.16087241 -0.19843122 -0.07421288 0.11264478 0.06853915 -0.12968674 0.07753715 -0.10846501 0.06378321 0.12477938 -0.10392931 -0.059025913 -0.14615701 -0.024694731 0.13509081 0.23247826 0.19868688 0.033435863 0.014132976 -0.06523256 -0.17218861 0.18314214 0.41056222 -0.22419815 -0.07286849 -0.07390754 -0.09704419
CCT 0.10849102 0.18130404 -0.06696948 0.03897827 0.06496739 0.2543077 0.07422394 -0.23285316 -0.19537051 0.045247313 -0.20240754 0.29449108 0.020916585 0.38772947 -0.21519633 0.14884397 -0.08211195 0.018828727 0.24946925 -0.13023414 -0.019520879 -0.011737303 -0.16436884 -0.333764 -0.45347893 0.107328214 0.13692679 0.12059345 -0.05948152 0.3993257 -0.10215997 0.092120446 -0.20742528 -0.122285396 -0.06409591 0.24173309 -0.23331787 -0.02545023 -0.015031262 0.35692003 -0.03260642 0.40814048 -0.42023546 -0.17005266 0.14582644 0.1732385 -0.3183225 -0.019369526 0.055123344 -0.009486978
CCG -0.001837889 -0.07641325 -0.102889426 0.12838766 -0.0041634445 -0.01178576 0.15591311 -0.20300561 0.07437242 0.060470615 -0.13381526 0.12956318 0.120685376 0.052613635 -0.040047266 -0.026921159 0.019582868 0.25536868 0.06814609 -0.0097466 0.016381288 0.06359286 -0.040053602 -0.21662752 -0.3599006 -0.00089233194 0.17241792 -0.05564468 0.0068713534 0.29865366 0.055495273 -0.30961117 0.0016519283 -0.28337792 0.13023414 -0.17920616 -0.3018452 0.15552418 0.109451935 0.03531633 -0.11954106 0.3688381 -0.47159562 -0.024203286 0.31560513 0.29734078 -0.30526263 -0.051978916 0.02908734 0.04600245
GTC 0.34437802 0.20322329 0.20504065 -0.18014441 -0.11383537 -0.20218396 0.24612044 -0.23078382 -0.08580762 -0.11220679 -0.26477513 0.16218668 0.5119615 0.19638059 -0.12738101 -0.22273435 -0.10262736 -0.22381926 0.28539646 0.060222436 -0.06932821 0.04936088 0.08364236 -0.02078257 -0.22714947 0.07270435 -0.09152847 0.004778771 -0.040917974 0.09244263 -0.29140866 -0.18891917 -0.2609972 -0.114553824 -0.03266441 -0.27487296 -0.07322728 0.09585095 0.22510387 0.24234404 0.081947096 0.22581576 -0.090685755 -0.33607993 0.31071028 0.14913139 0.053005975 0.095238924 0.09868704 -0.09006628
TCG -0.004957366 0.065325454 -0.124504335 -0.014801709 -0.39215454 -0.28057536 0.0779946 -0.3883541 0.013999726 -0.064273864 -0.19541986 0.011754606 -0.055626575 0.19731988 0.04617495 -0.27673325 0.021631703 0.093554325 0.03628551 0.07385061 0.027394267 0.12868379 0.15605865 -0.11788195 -0.27872458 -0.18403152 0.037550326 -0.10351138 0.091421016 0.2064103 0.0912477 -0.38554227 -0.01160608 -0.27146173 0.34566155 -0.15567003 -0.12365262 0.30317298 0.077428326 0.25803307 0.11791426 0.26158336 -0.3594452 -0.1815585 0.03003988 0.096923664 -0.033730704 0.13237742 0.17930399 0.35090226
ACG -0.023328355 0.12649205 0.042366195 0.109198034 -0.10919995 -0.12715787 0.06974994 -0.051329844 -0.010090081 0.088250495 -0.13720964 -0.3140592 0.0687043 0.33075735 0.33450377 -0.29010507 0.042133998 0.20224977 0.16152622 -0.08677474 0.06438638 0.084594294 0.008896632 -0.1832402 -0.39442703 -0.032948084 0.11186749 -0.06888121 0.3190514 0.021839011 -0.0756197 -0.4008752 0.21596065 -0.20416097 0.25927538 -0.10126606 -0.101883784 0.18578288 0.35080957 0.17173856 0.025371827 -0.08435232 -0.3882267 0.021556055 0.14681238 0.29554093 -0.07265529 -0.117504016 0.16768046 -0.21061835
CGC -0.0234658 0.05713803 -0.0011800296 -0.08544046 -0.42142284 0.0045339577 0.27058354 -0.18820307 0.058285046 0.043963596 -0.18217556 0.052848425 0.053137224 -0.02391398 0.031944107 -0.19163005 0.18091814 0.07733784 0.1645479 0.14995492 0.040882133 0.37406123 -0.13194276 -0.35423726 -0.43143564 0.16137266 0.1838191 0.016346928 -0.29029027 0.2488113 -0.109308384 -0.24996215 0.10677978 -0.023960173 -0.2053353 0.01675105 -0.102838814 -0.13301903 0.05076988 0.23570064 0.0010467926 0.07599968 -0.0060102544 0.05588252 0.18882394 0.09672665 -0.3851662 0.06360987 0.028801978 -0.0579702
CCC 0.045465376 0.1703777 -0.0065227826 -0.2630379 -0.12701 0.19890246 0.017675292 -0.20548834 -0.1103095 0.19600876 0.02912167 0.37591138 0.14666621 -0.014687981 -0.358909 -0.02900385 0.16172968 0.28200695 0.4236662 -0.17815852 -0.100842334 -0.077795155 -0.046251748 -0.2758837 -0.44150203 -0.016970528 0.060747523 0.024063453 0.015876587 0.36511418 0.044654045 0.114828534 -0.019919328 -0.06692957 -0.0931705 -0.06094453 -0.3953437 -0.093502134 0.13870785 0.2914672 -0.029366454 0.21017414 -0.39940205 -0.115528956 0.25304782 0.20231034 -0.30703557 0.055727806 -0.18514062 -0.0060063093
CGT 0.22776112 -0.05167968 -0.06526177 -0.20228773 -0.24609475 0.028967062 0.23286834 -0.41718277 -0.03093959 -0.08689886 -0.030853024 -0.11703072 0.09684544 0.16384791 0.23473753 -0.11815568 -0.121632755 -0.06438675 0.26923692 0.15258706 0.0037715093 0.2686838 0.05078878 -0.5045749 -0.687063 0.19332273 0.36581773 -0.04376514 -0.12284342 -0.12817857 -0.19338109 -0.1593102 -0.008084331 0.05499932 -0.02880434 -0.14364982 -0.042436626 0.0017776699 0.2340587 0.13929343 0.11797471 0.17460869 -0.05268098 0.061962962 0.22063144 0.034271758 -0.23687772 0.012191103 -0.18141478 0.34736532
