64 100
AAA -0.30721304 0.26139688 0.48232087 0.65610963 -0.40143993 -0.17322092 0.15418456 0.52864414 -0.024730956 -0.28043512 0.20978542 -0.004453767 0.34823477 -0.023813216 -0.30806413 -0.06716211 0.3867794 0.27454516 -0.78815204 -0.6452582 0.22828034 0.5403364 0.46221426 0.010229064 0.08173601 0.30942023 -0.048283596 0.1732758 -0.50519305 -0.007643288 -0.2226704 -0.15738608 0.22511005 -0.21233395 -0.1849204 0.35207418 0.62321657 -0.24117008 -0.42195988 -0.05021959 0.06733842 0.045616534 -0.88108945 -0.103794366 -0.051545694 -0.45734578 -0.48721015 -0.01835948 0.31665686 0.004218547 -0.34295663 -0.46588147 -0.5399941 -0.16751952 -0.1663507 0.22756371 -0.07714585 -0.74802166 -0.25773633 0.18626001 0.090477586 -0.08542232 0.72605914 -0.17284925 -0.25310707 0.6307653 -0.40283728 0.42540488 -0.11024254 -0.22783336 0.62481946 0.4089776 0.021850232 0.11055671 0.021344801 0.40028197 0.460994 -0.24002317 -0.26232293 -0.31895933 -0.2727534 -0.017235499 0.4465599 0.40554562 -0.7111611 -0.046032224 0.7390101 0.18407233 -0.20934825 0.22247343 0.18694884 0.30400822 0.446379 0.15534674 0.45452186 0.15714253 -0.088704 -0.22847384 -0.09142619 0.04285647
TTT 0.15900639 0.070255294 0.34233707 0.27368078 0.21799664 -0.23394905 -0.04880039 0.3561629 0.2793525 -0.20273149 0.19551875 -0.6209211 0.19358775 0.32626778 0.12635896 0.40966848 0.17990567 0.048281644 0.24551727 -0.24780543 0.19450778 0.3551139 0.25571817 -0.531669 -0.12382871 0.5579838 -0.43330953 0.3761061 -0.07798076 0.10424522 -0.18044147 -0.28497434 0.07285752 -0.5919857 -0.014051632 -0.15515904 0.31631896 0.05869018 -0.38154894 0.3041922 -0.15237494 -0.09308524 -0.46547452 -0.078419305 -0.11773773 0.018211091 0.39496908 0.0069204196 0.06751081 0.0065034553 0.48157248 -0.68485445 -0.1611837 -0.16322672 0.48153046 0.306637 0.2050666 0.19591312 0.265356 0.22507754 -0.8362492 -0.52745557 0.26353443 0.37448746 -0.1430063 0.2819691 -0.16854802 -0.026769485 0.007947667 0.49397185 -0.10103627 -0.3878281 0.51185364 0.17982994 -0.32118455 -0.11869238 -0.30680156 -0.66271484 -0.29510167 -0.03133913 -0.49972364 0.31863979 0.11389353 -0.37544206 0.051735323 -0.033044588 -0.17117421 -0.2717507 0.3527772 0.37289938 0.50045377 0.03214184 0.13473742 -0.0456344 0.073385924 0.17970045 0.41892523 0.8532042 -0.62656915 0.099929504
GAA -0.08440625 -0.0025521049 0.08520522 0.3130085 -0.07787229 -0.14519045 0.3776635 0.44554907 -0.15280078 -0.1476589 0.117581785 -0.18369937 0.05141531 -0.17273517 -0.28649786 -0.17099828 0.17650488 0.2740698 -0.37578598 -0.56738365 0.07544059 0.068868846 0.20043588 -0.19382267 0.18510213 -0.04459314 0.013459211 0.09124566 -0.16074736 -0.03056476 0.0205759 0.011131462 0.3496415 -0.008654073 -0.23428757 0.39571697 0.30538592 -0.14364831 -0.11066436 -0.26393518 0.40421826 -0.1956803 -0.2568656 0.19525564 0.15670855 -0.22430804 -0.5854078 -0.07023454 0.18876389 0.09929388 -0.29402742 -0.10823929 -0.10717532 -0.04713855 -0.37577382 -0.029101828 -0.1304457 -0.5439769 -0.06664077 0.09179233 0.34617698 -0.051840447 0.4898186 -0.21697322 -0.16816428 0.45392498 -0.055687323 0.5457574 -0.4182708 -0.23185804 0.14465065 0.5424515 0.10958027 0.06045745 0.3124498 0.18955675 0.5702097 0.074283764 -0.01579572 -0.038557783 -0.095797956 -0.11164755 0.003098136 0.3812146 -0.45929578 -0.2024225 0.5464815 -0.08624031 -0.16737081 -0.07065452 -0.10714037 0.31011453 0.29304013 0.22180802 0.54991245 0.009199284 -0.1835398 -0.12719814 0.2883564 -0.0031184966
AAG -0.13219693 -0.024616586 0.019056384 0.33496478 -0.2511911 -0.12569992 0.20383501 0.5097235 -0.12374911 -0.11448937 0.29334316 -0.077610865 0.11119892 -0.08798015 -0.26789942 -0.10955701 0.2732721 0.12527809 -0.4252944 -0.52195364 0.20592348 -0.01688114 0.25492445 0.13904697 -0.018019615 -0.033716153 0.13698667 0.09429932 -0.12739417 -0.024514066 0.008872443 -0.037939735 0.36195442 -0.14213002 -0.18772994 0.41811645 0.35223556 -0.2001351 -0.24099599 -0.1474526 0.40745956 -0.09580775 -0.16942346 0.14434628 0.13333237 -0.23208822 -0.46085054 -0.04940852 0.15601473 0.14491612 -0.28464398 -0.13357194 -0.23748551 -0.013699829 -0.24143761 -0.06117059 -0.07965175 -0.3662358 -0.013521944 -0.057803813 0.2580136 -0.05071235 0.5540575 -0.22992374 -0.30800676 0.44187468 -0.106251694 0.52946246 -0.3376891 -0.2730973 0.28854683 0.41127813 0.013837614 0.13204151 0.3214102 0.23025057 0.4358286 0.21275525 -0.056630097 -0.0074696704 -0.17626001 0.018564228 0.032910552 0.3822964 -0.4911747 -0.18098348 0.54950523 0.08778555 -0.16346365 -0.019520033 -0.17330101 0.20879295 0.22712514 0.28260785 0.5515881 -0.017351829 -0.16921483 -0.23900412 0.18588728 0.083387874
GGA -0.04671829 -0.19185048 0.05555689 0.09866889 0.110468306 -0.09840554 0.56908244 0.41964695 -0.0059339507 -0.115167156 0.16255406 -0.37114194 -0.22642523 -0.42956457 -0.32833925 -0.24415863 -0.096055575 0.32728654 0.045699123 -0.5311245 -0.04496273 -0.2259701 0.27627504 -0.48038864 0.08701447 0.0018102806 0.04525434 0.057821926 -0.012236137 0.0036030877 -0.073683776 0.018290041 0.49608946 0.08613512 -0.19750227 0.3593468 0.11959832 -0.19206353 -0.077965304 -0.26268885 0.6917054 -0.45542008 -0.10186019 0.471537 0.30319104 -0.25777355 -0.4708604 -0.1724753 0.18451147 0.10727488 -0.1334431 -0.05697813 0.21895537 0.039501503 -0.55259264 -0.018673217 -0.17269166 -0.39846703 0.21227638 -0.0013846867 0.2946353 -0.11344493 0.44712907 -0.35278255 -0.01621263 0.4611497 0.13903469 0.74091965 -0.676146 -0.27643606 -0.28240973 0.70287824 0.2444807 0.1311275 0.4522799 0.17650583 0.46552178 0.10799462 0.001996686 0.06996072 -0.24541225 -0.10505831 -0.12655996 0.2583503 -0.30809847 -0.38557282 0.5307642 -0.2823065 -0.24242695 -0.20558983 -0.23660831 0.27079082 0.11279383 0.26482072 0.7213034 -0.030097408 0.029100668 0.17009504 0.26943332 0.02325961
AGA -0.12118829 -0.08152911 0.00032635685 0.24579285 -0.29658875 0.0074218526 0.4050137 0.4997677 -0.09002 -0.09884869 0.13296175 -0.21193762 0.13850413 -0.152539 -0.5150917 -0.17393275 0.30463612 0.4311686 -0.31233037 -0.5042313 0.02717391 -0.09797594 0.36260167 -0.08391134 0.17359185 -0.053154897 0.049062036 0.018553847 -0.041377347 0.089273185 -0.064544044 0.118465915 0.3425196 -0.2567777 -0.16042504 0.40643683 0.39404625 -0.38360497 -0.3130223 -0.27350706 0.31716824 -0.10478581 -0.31843364 0.0843714 0.121979766 -0.15242729 -0.39232257 -0.09208475 0.1360926 -0.1151678 -0.13734756 -0.3955462 -0.17421205 -0.10648126 -0.4227031 -0.15470411 -0.058990743 -0.47400302 0.023242926 0.15563196 0.31545374 -0.26233044 0.7938211 -0.18448494 -0.19577959 0.4211753 -0.046203136 0.5558865 -0.43255198 -0.31211653 0.31619978 0.47145998 0.16576958 0.2710977 0.20257531 0.2094004 0.42817828 -0.023662418 -0.20490791 0.060336303 -0.16782364 -0.1170399 0.22023633 0.0049111205 -0.48993528 -0.44350007 0.6320354 -0.07637831 -0.13001898 0.053205937 0.013270414 0.40263277 0.029697469 0.23106585 0.7268376 -0.04712436 -0.05099659 -0.21866485 0.21609484 0.115322486
AGG 0.123635426 -0.15390669 -0.19731447 0.14814039 -0.18923111 0.024048673 0.42279804 0.3448844 -0.1715884 -0.10867765 0.20967707 -0.15104018 -0.0725631 -0.06642603 -0.1948695 -0.19499747 0.25691348 0.2680155 -0.141544 -0.48704925 -0.09534141 -0.4029483 0.06792267 -0.054795146 0.017888421 -0.22913677 -0.070786215 0.05729615 0.06418897 0.1074957 0.0656588 0.115700595 0.43294805 -0.14777827 -0.24684653 0.427159 0.05654762 -0.25067768 -0.19516951 -0.30398032 0.37568995 -0.13093664 0.21435708 0.24136768 0.24136792 -0.1090891 -0.36674514 -0.13637371 0.06449584 0.09738972 -0.11678706 -0.15743273 -0.017302528 -0.032883216 -0.39773098 -0.26521495 -0.087649584 -0.14691873 0.13757694 0.013473468 0.29659188 -0.18594103 0.42543462 -0.16136421 -0.25484395 0.2916555 0.08817972 0.53390115 -0.63832664 -0.24227266 0.011300252 0.516103 0.17016669 0.14040636 0.5169844 0.073545195 0.3314458 0.3838136 -0.05272851 0.09067717 -0.14266463 -0.06986064 -0.24427745 0.30181563 -0.24523817 -0.32307765 0.3956216 -0.16610827 0.0331217 -0.07638703 -0.17299923 0.22889343 -0.09771001 0.28150797 0.5882537 -0.1710531 -0.14484851 -0.12453634 0.37407702 0.12852731
CAA -0.19825976 0.1279408 0.107948504 0.3560921 -0.38101766 -0.16504833 -0.010600525 0.25591344 -0.1634005 -0.16657963 -0.08079401 0.1375035 0.2809573 0.14785258 -0.1092266 -0.21706668 0.25328606 -0.0771815 -0.6044401 -0.3668503 0.40037405 0.40653154 0.24244176 0.12155715 0.0011624349 0.0009968888 -0.060360625 -0.0811505 -0.3355655 -0.04193071 0.16028781 0.018399442 0.101094685 -0.21812281 -0.06547918 0.2157933 0.17731395 -0.03776469 -0.22834797 -0.133531 0.018852264 0.06320697 -0.2853056 -0.2271513 0.007013447 -0.35600024 -0.42628866 -0.13307816 0.30143878 0.037347723 -0.32849038 -0.17843615 -0.2653151 -0.115688264 0.0015678674 0.22647744 0.06642353 -0.3913895 -0.36624372 0.07665259 0.35129765 -0.0018416393 0.3466502 0.09098855 -0.27377746 0.42937377 -0.48625612 0.24278945 -0.10817927 -0.011988742 0.47559398 0.14186546 0.10723607 -0.051498927 0.12368319 0.05218857 0.3692691 0.009867395 -0.11326242 -0.20502123 -0.1901326 -0.07745882 -0.10535306 0.566946 -0.37328348 -0.020693645 0.499099 0.46942362 -0.076158926 0.15016262 0.29402465 -0.0056891283 0.20571584 0.00073681463 0.02645797 0.19296363 -0.3187371 -0.41856745 -0.010556359 -0.11225944
ATT 0.013294426 0.10032601 0.47543126 0.2922549 0.3422316 -0.26937264 0.12643178 0.2940648 0.29276633 -0.18189485 0.08664815 -0.58602256 0.06585857 -0.017538529 0.014945576 0.20774542 -0.27958807 0.061876107 0.1032988 -0.321497 0.3039662 0.5507447 0.3551737 -0.6461433 -0.078307115 0.537284 -0.19528404 0.13054684 -0.22492588 -0.10762757 -0.27445477 -0.32223764 0.20589969 -0.13835554 -0.0163002 -0.08126876 0.2696103 0.12408859 -0.26412743 0.15539896 0.06822178 -0.28287998 -0.6161316 0.08044223 -0.01471578 -0.1205346 0.029929375 -0.099271156 0.1792503 0.06485068 0.11808496 -0.46474215 0.005061798 -0.14642616 0.33058092 0.4287518 0.08861345 -0.19867069 0.068339586 0.19040674 -0.5101606 -0.27418268 0.19666891 0.09566664 -0.032551453 0.3269014 -0.26488942 0.25080603 -0.028839212 0.28109494 -0.22424331 -0.13056834 0.47250572 0.08249987 -0.2841956 -0.06170906 -0.0027889474 -0.72895485 -0.21904662 -0.14408897 -0.36016864 0.16866109 0.06753157 -0.08338487 -0.080663554 0.03328283 0.032805916 -0.23032273 0.04431757 0.17615706 0.3311834 0.0660887 0.31873962 0.0010081808 0.07305328 0.38159725 0.23737583 0.68676376 -0.49845508 -0.096108906
GAG 0.039504807 -0.26322162 -0.30880103 0.16885546 0.056607466 -0.14889604 0.46409333 0.4848167 -0.19219016 -0.0779309 0.27814487 -0.30809268 -0.17344743 -0.16646527 -0.20810845 -0.18276471 0.11273534 0.1849938 -0.075651266 -0.49806625 0.038220115 -0.35553494 0.019170417 -0.14750984 0.17532857 -0.29348928 0.09393007 0.14420433 0.09173145 -0.029903976 0.21960053 0.07197911 0.52621233 0.0012820652 -0.28123444 0.51127476 0.11606304 -0.11787924 0.025302347 -0.31962323 0.69948834 -0.30804956 0.2672222 0.34977466 0.31386825 -0.030523395 -0.5663234 -0.037879173 0.12323009 0.24509631 -0.2298548 0.07719078 0.13660866 0.062266257 -0.38305184 -0.2687128 -0.12328098 -0.22187895 0.23617691 -0.053168733 0.3913473 -0.07248264 0.44849646 -0.31927258 -0.2875228 0.30641806 0.1704763 0.6734756 -0.71516114 -0.22559096 -0.12463421 0.6002728 0.1643261 0.065960914 0.583183 0.046025656 0.5065032 0.39655817 0.12884058 0.15337175 -0.09244465 -0.06884731 -0.34270567 0.40582883 -0.27270508 -0.36453333 0.3628868 -0.28027368 -0.06982301 -0.21698755 -0.45276895 0.2987626 0.16540378 0.33661267 0.7038157 -0.15761307 -0.24601918 -0.03251765 0.538786 0.048241083
AAT 0.004918597 0.21853644 0.43933603 0.27910385 0.046139702 -0.23727037 0.10115224 0.43952024 0.022431416 -0.2251816 0.10689393 -0.29885942 0.3010171 -0.07524937 -0.19884905 0.17287615 0.1688437 0.02512249 -0.20143948 -0.5698389 0.43015015 0.48829687 0.49686894 -0.21949953 -0.16579986 0.40881145 -0.07752028 -0.004715419 -0.16332474 -0.0024397094 -0.25666517 -0.21772589 0.16544956 -0.17893457 0.01395028 0.11137634 0.400004 -0.009708141 -0.31979126 0.03397364 0.05675823 -0.18878815 -0.5688012 0.13338593 -0.06688932 -0.23064508 -0.31434968 -0.1304588 0.10932547 0.04165039 -0.026511747 -0.27362898 -0.32147408 -0.12955713 0.14421035 0.28106716 0.048732217 -0.45913392 -0.27251622 0.118289046 -0.30175418 -0.24678832 0.28160408 0.16763644 -0.12255701 0.5406285 -0.36162248 0.1305257 0.13815126 -0.02133919 0.15558279 -0.04330232 0.11927557 0.13036945 -0.16413541 0.080858365 0.39933267 -0.3873221 -0.11020884 -0.029229905 -0.23333122 0.22035573 0.33986735 0.02797495 -0.40353125 0.14244433 0.36348674 0.17092377 -0.07951765 0.10926474 0.44093883 0.08249784 0.3162923 0.117505886 0.10727154 0.1554672 0.062626675 0.09669399 -0.33443394 0.007217546
TGG 0.37509975 -0.21196342 -0.15562169 0.045647375 -0.0756946 -0.048523966 0.29394403 0.38346982 -0.06572181 -0.021697633 0.3253921 -0.24469885 -0.08012162 -0.02182218 -0.12315022 0.049151894 0.29039603 0.1940382 0.19155475 -0.4503295 -0.23432393 -0.51941437 -0.020024462 -0.36950126 -0.15248935 -0.11165396 -0.23534994 0.24831858 0.1973812 0.17286175 -0.107095234 0.018084245 0.40887907 -0.33414286 -0.29634398 0.21752177 -0.03879067 -0.22849232 -0.2501545 -0.20660895 0.2530858 -0.17657226 0.3258882 0.45794368 0.3305942 -0.025343219 0.08963537 -0.08476553 0.00564623 0.17098728 0.17023894 -0.13853283 0.08229421 -0.0032931871 -0.25941196 -0.24174167 -0.1601903 0.18974355 0.45176044 -0.08325998 0.002474163 -0.30886492 0.24320783 0.04185845 -0.15153109 0.2871382 0.24663784 0.50364065 -0.5255666 -0.024914058 -0.2115087 0.25908402 0.29613394 0.21807165 0.44969013 0.13342893 0.020498218 0.30535388 -0.03570235 0.22694127 -0.1697914 0.14309178 -0.3458863 -0.055493817 0.086066835 -0.32031927 0.100409396 -0.34665832 0.22384581 0.042126156 -0.046125676 0.09159575 -0.14887588 0.29320997 0.63789076 -0.24587065 0.08418638 0.45439678 0.09679165 0.14026158
TTG 0.15409857 -0.11376517 0.12134073 0.10934506 -0.077317275 -0.07325787 0.094015926 0.35851786 0.15363547 -0.071736954 0.17901812 -0.4119676 0.03033541 0.13466215 -0.09660004 0.16351949 0.26691878 0.2060782 0.31395254 -0.31103668 -0.114614986 -0.17699288 0.029618235 -0.36865413 -0.16536912 0.25306794 -0.34344566 0.33634728 0.06779134 0.19420718 -0.2075143 -0.04072853 0.25739625 -0.46302968 -0.16415012 0.041943237 0.11266419 -0.19527504 -0.37760106 0.10926781 0.07169503 -0.053803306 -0.05742779 0.15246947 0.124733426 -0.112560704 0.3439128 -0.077088706 0.06713104 -0.0032293624 0.39744902 -0.34456402 -0.0029191466 -0.002575481 -0.040602315 0.020345695 0.0045791105 0.16770563 0.4969316 0.09925363 -0.37723598 -0.4339153 0.23480895 0.21707778 -0.055490974 0.21998203 0.06851021 0.23549064 -0.27987108 0.22574657 -0.09129783 0.010735786 0.37983438 0.2068396 0.18371022 0.12613375 -0.11711729 -0.13653433 -0.16723879 0.13830611 -0.4244141 0.181336 -0.06835604 -0.1991874 -0.008945638 -0.23146626 -0.010851973 -0.30718285 0.31276384 0.25724494 0.23542385 0.07334633 -0.07271202 0.051412743 0.3872532 -0.065081686 0.30610391 0.6593665 -0.19363385 0.26402098
CCA 0.06083127 0.22047564 -0.2702793 -0.011780287 -0.26863658 -0.297561 -0.1736077 0.21712571 -0.29621637 -0.254416 -0.15737036 0.08038808 0.29622722 0.5028415 0.2111198 -0.030791597 0.41809124 -0.27954704 -0.3601032 -0.30013952 0.4326102 0.26614755 0.19904198 0.34929112 0.07744467 -0.10565014 -0.26616973 -0.19990963 -0.1093152 -0.02350073 0.56212276 0.04512978 0.19139984 -0.5148501 0.15268804 0.10347604 0.009903294 0.16915996 -0.19755977 -0.16841345 -0.49277687 0.12390157 0.11535325 -0.30199027 -0.06833196 -0.23829533 -0.33131957 -0.11335238 0.018328805 0.069510736 -0.03543444 0.003335754 -0.5002823 -0.109713465 0.35950914 -0.022573592 0.3317848 -0.0742563 -0.41329846 0.15409227 0.19753076 -0.055327382 0.1213511 0.5391841 -0.32976797 0.14646812 -0.36306918 -0.19297257 -0.043628346 0.3135355 0.393324 -0.22019415 -0.0041390494 0.02775316 0.22465348 -0.33398604 0.13657014 0.13726394 -0.12982169 -0.024150576 -0.09019336 -0.05790659 -0.22833385 0.45063493 -0.1881986 0.20158246 0.21465957 0.52459276 0.1376921 0.18741824 0.486035 -0.106854126 0.0340714 -0.07656592 -0.2741105 0.0865836 -0.2585598 -0.5232132 -0.10130872 -0.124406755
TAT 0.2960125 0.18198001 0.37255526 0.22177644 0.0832861 -0.23446792 -0.05493841 0.54212874 -0.0013356099 -0.029294899 0.2453947 -0.4920974 0.47371644 0.18218182 -0.40591636 0.5624296 0.53374 0.05260322 0.08963741 -0.60734314 0.31894428 0.27144182 0.3346449 -0.34467158 -0.29313567 0.42877012 -0.21974294 0.21989226 0.104667015 0.0813657 -0.31461287 -0.17574567 0.08894008 -0.63192666 -0.1369787 -0.076538 0.47393435 -0.08112931 -0.38486922 -0.019804083 0.016737377 -0.13982244 -0.4098629 0.25493667 -0.083299085 0.04270736 0.16325334 -0.07211776 -0.071324915 -0.017215922 0.28886333 -0.47027847 -0.32922935 -0.14475462 0.36586154 0.16298382 0.03228834 -0.07088282 -0.008456432 0.02307017 -0.5791763 -0.65309566 0.27571926 0.5377062 -0.13564128 0.56459904 -0.20988637 0.009887949 0.31756386 0.22382398 0.015502988 -0.45412573 0.32020947 0.32858968 -0.29418305 0.020518137 0.118257664 -0.4927503 -0.10941815 0.22713256 -0.17874177 0.41499552 0.3297713 -0.6211294 -0.18195736 0.01710008 0.11049823 -0.06583806 0.1724291 0.25378925 0.6489666 0.040654782 0.17677899 0.25324345 0.2212951 -0.045127884 0.17835298 0.6856135 -0.5480281 0.21421547
ATG -0.050939947 -0.07522436 0.25739306 0.2019156 0.029832192 -0.13105674 0.26030257 0.3184534 0.18469973 -0.072014585 -0.024042066 -0.4067124 -0.10025756 -0.13861081 -0.19968307 -0.064459786 -0.22471377 0.21338978 0.117365874 -0.3037008 0.14151637 0.12237495 0.156638 -0.4514714 -0.111896105 0.2718703 -0.13027994 0.06346464 -0.08990257 -0.038153253 -0.26039743 -0.080244824 0.31866336 -0.025257379 -0.08829358 0.12612091 0.13424638 -0.09926653 -0.30406263 0.050147176 0.28535783 -0.22835197 -0.2791595 0.1760895 0.18496302 -0.20115203 -0.06654466 -0.20829163 0.25887042 -0.009525083 0.031101903 -0.23492932 0.17924932 -0.014321554 -0.135433 0.2218548 -0.019154627 -0.25557408 0.23633085 0.16025178 -0.08171029 -0.20407541 0.2201471 -0.038485922 0.044220943 0.2476021 -0.1409251 0.49178904 -0.27071038 0.07677262 -0.14856094 0.20037004 0.39240718 0.057986725 0.14697184 0.13066828 0.21261139 -0.28907266 -0.09342599 -0.044263087 -0.3827383 0.015062293 -0.09812661 0.110141486 -0.1932029 -0.17261863 0.18108761 -0.22643122 0.03621398 0.08783387 0.16089466 0.110415556 0.13700314 -0.0012523673 0.26575434 0.19686247 0.0961123 0.42229953 -0.11105986 0.072994605
ATA -0.080373675 0.16067274 0.4966491 0.44169626 0.09716807 -0.26959068 0.09942971 0.55139387 0.039008647 -0.1383003 -0.011098463 -0.4364794 0.32411695 -0.0357589 -0.43038872 0.24353004 -0.0072595254 0.12935865 -0.24609336 -0.5422289 0.5890216 0.67989963 0.48616457 -0.28144196 -0.051546197 0.5008847 0.023417005 -0.0064296345 -0.1747762 -0.14181107 -0.2729218 -0.227236 0.13662449 -0.19415544 -0.006660196 0.1253274 0.5739922 -0.08733143 -0.37481803 -0.038327046 0.1633653 -0.26221895 -0.7533159 0.116024 -0.06207794 -0.116346315 -0.32440877 -0.15258326 0.20044886 -0.064102285 -0.12395265 -0.47506163 -0.26259458 -0.13135824 0.21199442 0.42178485 0.013046475 -0.66080326 -0.2702333 0.12716249 -0.18033662 -0.31597364 0.46862593 0.19282071 -0.14597644 0.6189665 -0.4764295 0.3212084 0.21324597 0.09298587 0.16592892 -0.084238276 0.27630177 0.124070406 -0.3348919 0.06761884 0.48136482 -0.6625643 -0.08579095 -0.076808184 -0.20919394 0.13440643 0.32155472 -0.16455545 -0.47915125 0.02022886 0.34141096 0.004445183 -0.16961227 0.100912526 0.47385696 0.15900801 0.43491444 0.16410322 0.14077027 0.25075266 -0.087559596 0.22673458 -0.38819405 0.0036935955
GAT 0.18519703 -0.06328119 0.19443657 0.09754905 0.27970517 -0.18418755 0.29216632 0.38073444 0.020813348 -0.0863148 0.15477799 -0.520173 -0.0015639169 -0.160716 -0.16007054 0.13225062 0.08283328 0.1178727 0.31007132 -0.52350986 0.07866064 -0.023923524 0.15944004 -0.5728479 -0.13855518 0.22926885 -0.18838829 0.15137881 0.081793465 0.069383785 -0.20615526 -0.107937664 0.2824584 -0.114842154 -0.15477683 0.15321633 0.11029064 -0.004759517 -0.13605258 -0.04848286 0.36459726 -0.38642213 -0.07811981 0.44893014 0.18885066 -0.07806414 -0.13570327 -0.10684868 0.0810326 0.09954176 0.18948114 -0.024904847 0.14073707 0.041759726 -0.11585219 0.09093999 -0.050602388 -0.15697561 0.20157965 0.033788294 -0.2709142 -0.3250731 0.09143814 0.11855622 0.024673477 0.37757674 0.009728356 0.3331526 -0.19167332 0.018590061 -0.29036963 0.10850658 0.30663776 0.15328044 0.16375558 0.07079965 0.29122412 -0.098502606 0.08851354 0.1838552 -0.25087798 0.15500428 -0.00657829 -0.09023317 -0.07006393 -0.061851244 0.12535752 -0.25252312 0.13213974 -0.008664227 0.17823756 0.14917788 0.17491667 0.16639225 0.35832474 0.009709254 0.12714043 0.57370776 -0.06015752 0.0986241
TGA 0.115542345 -0.109375894 0.11704799 0.0831926 0.03565404 -0.13643062 0.22227415 0.40147808 -0.0039818613 -0.029325878 0.13468164 -0.33594435 0.021514218 -0.12150999 -0.23999366 0.036847394 0.12754951 0.1534465 0.16381094 -0.38930285 0.014455246 -0.11631155 0.21839245 -0.45852873 -0.06945834 0.11717995 -0.14201146 0.12352888 0.06950662 0.019534694 -0.11515696 -0.025299396 0.24902949 -0.22549643 -0.15450548 0.087377645 0.13290346 -0.14529659 -0.2123314 -0.15922292 0.27321488 -0.2773987 -0.08938983 0.36230835 0.16884714 -0.11632661 -0.02510383 -0.11825149 0.10719036 0.05872709 0.10437041 -0.19261286 0.051031623 0.036734544 -0.20243655 0.03935284 -0.08156174 -0.12100568 0.22109807 -0.026304964 -0.008369118 -0.22996715 0.32363296 0.055618927 -0.025565824 0.43848252 0.04008002 0.41979575 -0.25777617 -0.010443915 -0.13108188 0.18821141 0.3010926 0.18643521 0.2016807 0.14106384 0.15289652 -0.04951555 -0.06787456 0.11963709 -0.22228423 0.06672858 -0.081420794 -0.123485774 -0.067663245 -0.2643828 0.24891037 -0.16750607 -0.007900647 0.03908698 0.14201695 0.10977751 0.03397405 0.19237143 0.51231563 0.014167169 0.14801063 0.4047877 -0.09429388 0.049364068
GGG 0.17671278 -0.25930187 -0.17599517 0.056774765 0.05001612 -0.03361438 0.54162586 0.30542096 -0.084503904 -0.10469514 0.26170817 -0.2817301 -0.33211723 -0.2902179 -0.059014797 -0.24013263 0.0013747353 0.17177223 0.16255522 -0.5301708 -0.1862783 -0.5206174 -0.034812737 -0.37610224 -0.06314202 -0.17250244 -0.08280127 0.1204309 0.09376398 0.10351446 0.035880744 0.009493814 0.5821208 0.038884647 -0.2934433 0.4188685 -0.16146322 -0.16348249 -0.0501084 -0.27462125 0.64279854 -0.38754088 0.41834733 0.5471306 0.42222577 -0.20751067 -0.37311387 -0.18582298 0.1331246 0.27973393 -0.094666034 0.10703395 0.26938796 0.09864503 -0.5084504 -0.16755335 -0.15595147 -0.04889799 0.3676885 -0.08773878 0.26949388 -0.10445694 0.17550458 -0.26944995 -0.115657315 0.33029425 0.22957458 0.72007006 -0.87228525 -0.20130843 -0.4187845 0.6973519 0.2680091 0.028975222 0.7375706 0.08620642 0.32860678 0.5011022 0.098436676 0.10854292 -0.25101584 -0.06314001 -0.5345279 0.49159425 -0.07115926 -0.3314172 0.27359104 -0.329351 0.014564839 -0.23197803 -0.37320268 0.14788741 -0.055838317 0.3022813 0.6282788 -0.18352291 -0.07126856 0.2368602 0.43181813 0.091158755
AAC -0.16530675 0.24868962 0.17462954 0.23971497 -0.06433224 -0.3076382 -0.01958815 0.2579536 -0.118953586 -0.29939812 -0.035298333 -0.048237313 0.20614322 0.15293914 0.12388295 -0.17177083 0.0069055255 -0.14121579 -0.49621853 -0.3794369 0.42501268 0.5221132 0.360767 0.10154347 0.0030501906 0.08000752 -0.05574935 -0.0979291 -0.41435733 -0.21701737 0.19255695 -0.1310522 0.24249911 -0.05338632 0.0003280518 0.1698372 0.23477347 0.21286501 -0.19247063 -0.060320266 -0.06383477 -0.030256858 -0.43098295 -0.105587825 -0.09459044 -0.37772122 -0.520145 -0.11716001 0.17091067 0.15028094 -0.23153862 -0.1274107 -0.36193824 -0.10806457 0.16016215 0.25097176 0.1324295 -0.457558 -0.4679149 0.025336364 0.1557171 0.14475755 0.20670155 0.036869776 -0.24559774 0.38453108 -0.42335504 0.09242548 -0.07269406 0.046791486 0.28313532 0.14885794 0.04534828 -0.016986677 0.12625827 -0.03920203 0.3663943 -0.11731616 -0.16058126 -0.2192752 -0.17304605 -0.043673597 -0.07501417 0.59110165 -0.45602274 0.2186874 0.4443207 0.3941223 -0.1628885 0.090678476 0.2416253 0.02546435 0.3057617 0.09332314 -0.03105122 0.30873862 -0.18593447 -0.32141003 -0.15588011 -0.24116248
ACA -0.15484144 0.20655513 0.14818028 0.31308812 -0.34817094 -0.20315169 -0.024662483 0.32974717 -0.20024118 -0.14102411 -0.081821315 0.042058382 0.3777516 0.19808282 -0.1575232 -0.081653 0.4112147 -0.123680204 -0.5319769 -0.4236084 0.38648826 0.38447252 0.22546425 0.16903566 0.1162796 0.073398456 -0.20306753 -0.09296206 -0.15871742 -0.11799617 0.2974948 0.064652964 0.15579852 -0.33014408 0.05693369 0.12764044 0.32678294 -0.08181321 -0.22560276 -0.17658356 -0.13069181 -0.005767531 -0.25649178 -0.18150517 -0.091455474 -0.3664144 -0.4057946 -0.092748985 0.15898722 0.022798382 -0.17980422 -0.1699149 -0.45231724 -0.024319477 0.02298366 0.14897558 0.14461252 -0.3926005 -0.32539442 0.14358562 0.28497225 -0.050748114 0.41029403 0.3172764 -0.27769566 0.4214708 -0.42642206 0.13837424 -0.0074222656 0.1449229 0.45052987 0.10499897 0.07090089 0.00078486704 0.12935305 -0.06376638 0.34490103 -0.035900593 -0.067464486 -0.04269135 -0.15436871 -0.118840925 -0.014268564 0.44036412 -0.47473004 0.040510725 0.46583244 0.37990537 -0.09770319 0.18788014 0.45548174 0.03704507 0.23001605 0.04445239 0.023540981 0.1116951 -0.22598124 -0.30860305 -0.11247546 -0.08325919
TTA 0.116458 0.12367932 0.25493965 0.27124548 0.049457204 -0.25369743 -0.0024006078 0.4790928 0.05614762 -0.22129728 0.08316758 -0.4326872 0.32078367 0.27174833 -0.10841874 0.34974143 0.28516322 0.11248824 -0.019106384 -0.33923373 0.32312652 0.39021817 0.28892538 -0.21533538 -0.01188986 0.39822748 -0.26951107 0.21540514 -0.0111212125 0.030385276 -0.105458975 -0.14969537 0.0790603 -0.5155877 0.021747308 0.020689521 0.45929486 -0.07040787 -0.38464496 0.10463045 -0.12436665 -0.060218316 -0.45271403 -0.06255464 -0.13854612 -0.0043079196 0.068869576 -0.03291308 0.02508684 -0.07023036 0.26888847 -0.57036215 -0.35038581 -0.17048994 0.359993 0.22111373 0.1319249 -0.14175399 0.01614973 0.18581386 -0.4566786 -0.44149783 0.40487954 0.38837507 -0.20925693 0.39318025 -0.24072687 -0.008385584 0.07484619 0.33518758 0.11818961 -0.2685101 0.29313076 0.17163688 -0.26543626 -0.068518974 0.05035685 -0.53187454 -0.21453461 0.05082399 -0.28001103 0.26135492 0.22371465 -0.32048032 -0.22264408 -0.011486584 0.06461438 -0.10788148 0.14136054 0.25863147 0.50706077 0.07608441 0.16297697 0.074952066 0.12450088 0.023559038 0.14995553 0.38092503 -0.42808604 0.08153025
TTC 0.06111078 0.025321648 0.030253438 0.07790211 -0.13436708 -0.18807845 -0.30831698 0.1994063 0.014127932 -0.09279685 0.027714409 -0.29167143 0.25646302 0.4950502 0.29300073 0.12358935 0.40408552 -0.35348243 0.22741905 -0.18503253 0.2788783 0.13984734 0.10113609 -0.115265824 -0.2036285 0.18275048 -0.4261571 0.13159971 -0.0648864 0.038186874 0.34600955 -0.06232558 0.005453102 -0.68482435 0.06551264 -0.19758019 0.061595142 0.1066437 -0.3251936 0.14524516 -0.2926678 0.054843076 0.05651144 -0.21833242 -0.13075407 -0.14904095 0.28949594 -0.03354336 0.04955042 0.091955215 0.3895231 -0.2508719 -0.19986333 0.094024636 0.36268702 0.18664072 0.36295578 0.3248386 0.021722395 0.08259695 -0.35178226 -0.2781952 0.06572649 0.56599313 -0.23797159 0.23292224 -0.27691314 -0.23669861 -0.008327494 0.48966122 0.10078056 -0.35697556 0.32411104 0.03420496 0.08893113 -0.22718401 -0.25520453 -0.060352385 -0.17424731 0.0043464536 -0.43639407 0.13224514 -0.2891257 0.06755571 0.027460746 0.011439024 -0.12329057 0.2632006 0.37831533 0.3857314 0.52210903 -0.17316256 -0.1410231 -0.08449188 -0.12721054 0.20687254 0.12919928 0.3132426 -0.4296068 0.0553199
ACC -0.01956233 0.18340153 -0.18771975 -0.11043777 -0.27937007 -0.3886446 -0.0851276 0.20096427 -0.41172934 -0.31447047 -0.24430326 0.16230477 0.18428916 0.42895794 0.16747285 -0.20790537 0.2879166 -0.33381197 -0.41653526 -0.20031555 0.38751322 0.319292 0.15596084 0.19948651 0.10422305 -0.24714376 -0.2872705 -0.3102395 -0.06476613 -0.1918318 0.65302074 0.16512254 0.13782609 -0.2912932 0.21242072 0.072080776 -0.0039065327 0.16273698 -0.044906992 -0.25375667 -0.38385043 -0.004655919 0.14985545 -0.23342225 -0.0074973125 -0.33885598 -0.34359324 -0.1520542 0.11693955 0.05844858 -0.07390531 0.15722372 -0.30814686 -0.042282898 0.23310913 0.121846415 0.32304516 -0.14956108 -0.3926514 0.09939303 0.4809457 0.09951528 0.08056579 0.5213744 -0.2653501 0.2691877 -0.44827107 -0.16671339 -0.1240783 0.37688336 0.2854385 -0.069879785 0.08101783 -0.08504756 0.28971905 -0.36259165 0.24507397 0.14491631 -0.049678404 -0.019383386 -0.020233095 -0.17234258 -0.44065884 0.60063595 -0.13212392 0.16843988 0.26167 0.53731936 0.044162765 0.22923036 0.51917696 -0.22508466 0.048427038 -0.112330124 -0.22852954 0.09891667 -0.298457 -0.50722325 -0.027874038 -0.37016237
TAA -0.035613228 0.21315894 0.44737372 0.5174544 -0.23329696 -0.16326511 0.029912049 0.55053294 -0.042476017 -0.05821325 0.19587259 -0.21363649 0.4448304 0.073117346 -0.49570423 0.23203999 0.50310206 0.21105498 -0.4514111 -0.64650095 0.25815612 0.39422974 0.31593236 -0.17019609 -0.08262383 0.34092906 -0.1251864 0.20916311 -0.21146236 0.0057950625 -0.24514768 -0.12156798 0.111680575 -0.44423732 -0.22298545 0.15524857 0.6316435 -0.22023901 -0.4007849 -0.1151262 0.13180807 -0.046388123 -0.67739284 0.069714755 -0.0856811 -0.2055223 -0.16954571 -0.039658267 0.14729455 -0.053278003 -0.11491736 -0.54618317 -0.4180441 -0.14913099 0.041645326 0.20194802 -0.08202063 -0.45838138 -0.14403273 0.090903215 -0.10059463 -0.3994311 0.6140762 0.15999447 -0.19057396 0.63693255 -0.3038707 0.30508977 0.085474774 -0.040462438 0.3379125 0.018284928 0.19383413 0.20701553 -0.13779038 0.25928658 0.29490486 -0.36787182 -0.17553031 -0.060200226 -0.17683549 0.14923356 0.36698157 -0.119250596 -0.52789354 -0.09693695 0.4760877 0.03781416 -0.05797542 0.2453177 0.40224478 0.21253331 0.3468984 0.2578982 0.39729333 0.034044825 -0.05925581 0.28251514 -0.28532705 0.15071277
CAT 0.09085348 0.11073132 0.17013481 0.086271815 0.058720656 -0.24055524 -0.060419116 0.20231967 -0.02814596 -0.15184116 -0.094484404 -0.19901311 0.24206263 0.12572472 0.03590929 0.065670386 0.061916582 -0.2627296 0.0054534655 -0.35810828 0.5124514 0.4107634 0.31061786 -0.22037472 -0.26435074 0.22210711 -0.16608569 -0.10395428 -0.11312609 0.0027279067 0.0015003206 -0.121457525 0.08048227 -0.24676028 0.062318992 -0.03704244 0.0041779997 0.15868986 -0.2149679 0.030925702 -0.06025833 -0.15267679 -0.14346407 0.010778739 -0.0015003231 -0.20156343 -0.118909456 -0.21561347 0.13720243 0.087783985 0.07414022 -0.08657339 -0.11090166 -0.085721545 0.3250415 0.34103292 0.1788143 -0.11131529 -0.29272506 0.01275259 -0.19709302 -0.19918416 -0.07082972 0.3962562 -0.13710718 0.38178834 -0.42147326 -0.01511185 0.10477812 0.2459965 0.016297406 -0.29349512 0.2586593 0.011151497 -0.077162616 -0.17701125 0.20463035 -0.21779078 -0.054082252 0.021718234 -0.24146794 0.2016859 -0.1449901 0.16418785 -0.048031967 0.16520149 0.114769 0.37394655 0.091970585 0.13270715 0.56369704 -0.19794452 0.112106204 -0.036904 -0.23346695 0.22322214 -0.037189364 0.10866388 -0.3606522 -0.10399857
CTT 0.24725913 0.11300805 -0.14348392 -0.027135953 -0.015834328 -0.2187634 -0.1723602 0.136083 0.03964142 -0.06982563 0.07249601 -0.27289346 0.31043512 0.5762359 0.26130825 0.0977403 0.36838016 -0.23065846 0.08100807 -0.009975116 0.096616134 0.20278293 0.103572175 -0.19364473 -0.036501978 -0.03760969 -0.46987686 0.12321803 -0.09413642 -0.03553766 0.29787424 -0.05880643 0.10327945 -0.6742899 0.060705077 -0.22197275 0.009597361 0.14387281 -0.2380485 0.031265378 -0.54590577 0.14694603 -0.0308497 -0.2461392 -0.101628765 0.08236377 0.33368635 0.015135883 0.01820611 0.029911546 0.3852867 -0.4359808 -0.22421138 -0.21091704 0.55708545 0.0007037716 0.29836768 0.41785777 0.07054729 0.18016785 -0.33767074 -0.3142355 0.06735208 0.53800535 -0.19620258 0.03943834 -0.24818464 -0.2629744 -0.072734244 0.56565917 0.08009804 -0.38882723 0.44706446 0.078338645 -0.03532454 -0.3659856 -0.37370333 -0.36149418 -0.32492316 0.00841148 -0.2752784 0.1041653 -0.35351428 -0.14103898 0.1533654 -0.07913373 -0.23634917 0.026306648 0.46180937 0.46837452 0.5585217 -0.08959177 -0.08694969 -0.09823666 -0.06957762 0.09859677 0.2288865 0.47462726 -0.4723313 -0.22051412
GCA 0.14917272 -0.030049605 -0.27527955 0.08456396 -0.22986744 -0.03207996 0.075145155 0.3083629 -0.34743765 0.04133126 0.06842726 -0.111774646 0.23113294 0.17241013 -0.17633957 -0.00032805896 0.40761802 -0.11274173 -0.18932475 -0.46824118 0.3224284 -0.22083108 0.18725467 0.3688401 -0.027861917 -0.27456957 -0.0021709178 -0.14006965 0.13979183 0.014970561 0.33089378 0.08043477 0.41629666 -0.40515152 -0.051669937 0.2166701 0.06788399 -0.07015221 -0.12814842 -0.31099227 0.112313375 -0.026954606 0.3708396 0.093329094 0.061586875 -0.07724072 -0.44229242 -0.14877214 -0.06450824 0.21442294 -0.2372763 0.03320662 -0.30217624 0.08355882 0.014561558 -0.29479754 0.09339987 -0.04629209 -0.18960974 0.028040528 0.29131833 -0.1478389 0.19394399 0.24373204 -0.4043714 0.2857991 -0.08159835 0.20229927 -0.16202511 0.024322007 0.17581162 0.05796951 0.053169183 0.042633794 0.4022599 -0.20443347 0.32325795 0.416319 0.06624726 0.16603117 -0.06849009 -0.008256287 -0.27546632 0.33810675 -0.38262945 -0.067662425 0.30454925 0.25197375 0.0360111 -0.108493805 -0.0138380295 0.022773717 -0.07439073 0.16185804 0.20396309 -0.085704535 -0.30967057 -0.46754232 0.1997078 0.14561097
TCA 0.07792176 0.10008842 0.05139284 0.13046046 -0.11550173 -0.1336067 -0.1993226 0.1132022 -0.103975184 -0.12299789 0.044607338 -0.12420679 0.18010837 0.32910967 0.22675388 -0.0060061207 0.28394622 -0.26166445 -0.08643779 -0.31220552 0.22760351 0.20934807 0.18491149 -0.028629718 -0.14688309 0.20289357 -0.34544614 0.055111572 -0.1288925 0.037292264 0.122403294 -0.09857657 0.17367892 -0.40168732 0.0767701 -0.0233568 0.012412644 0.08251216 -0.28180206 0.0885882 -0.32797554 -0.029555809 0.026668455 -0.022763861 -0.016127119 -0.2614894 -0.044246107 -0.04402779 0.085483156 0.09656369 0.16262251 -0.0509599 -0.28910455 0.039435048 0.20115168 0.12678505 0.19019407 0.04699311 -0.10103099 0.023301417 -0.15920122 -0.14489602 0.009598777 0.4650892 -0.16938081 0.23259944 -0.3088789 -0.003314797 -0.117334105 0.3208914 0.102622114 -0.115797885 0.16739404 0.0047163037 0.08860173 -0.114526205 -0.04728271 0.05160744 -0.0925041 -0.050398953 -0.38087186 -0.012025247 -0.24749464 0.3323585 -0.09381463 0.19923256 0.08559019 0.3016953 0.2664834 0.26050353 0.38443434 -0.074228585 0.045967042 0.01105666 -0.124071464 0.16649239 0.0041595283 0.14585446 -0.32213444 -0.018344885
ATC -0.062190853 0.036940385 0.14617948 0.1229051 -0.0030497783 -0.16618721 -0.15551464 0.16440561 -0.010493441 -0.010764236 -0.058223248 -0.29780737 0.13632463 0.1429143 0.1173609 -0.045163743 0.030010197 -0.36365288 0.15599579 -0.29965028 0.41875038 0.21930131 0.20130378 -0.1490713 -0.23011345 0.18190339 -0.16285789 -0.107517645 -0.13427666 -0.12987909 0.24009682 -0.1025215 0.11798631 -0.27146962 0.0787142 -0.12774369 0.025453312 0.1359721 -0.21935566 0.012078051 -0.022896644 -0.17043488 -0.011806539 0.01969871 -0.052580513 -0.24170592 -0.064899 -0.15062764 0.13011529 0.15569647 0.06442673 -0.021075238 -0.04449761 0.19698785 0.16122136 0.28677613 0.25883684 -0.06239935 -0.2077057 0.009062693 -0.08160374 -0.09180484 -0.022077106 0.33204827 -0.13491903 0.33070192 -0.36595312 0.040771518 -0.0012296597 0.22833216 -0.032931607 -0.12718023 0.2724852 -0.047819525 0.13334592 -0.14984429 0.08933144 -0.018519234 -0.0105417045 -0.07079166 -0.35167995 0.00443734 -0.31055355 0.27924758 -0.13387924 0.06741997 0.0836206 0.30537707 0.11066503 0.13509113 0.3413268 -0.13541172 -0.003686964 0.006728265 -0.118045755 0.3638671 -0.07024033 0.12879452 -0.31331006 -0.023912719
GGT 0.31176415 -0.2971237 -0.04450133 -0.10947307 0.22332802 -0.14956817 0.32761583 0.30238032 0.13376005 -0.092925906 0.2951513 -0.47933322 -0.17360635 -0.14919458 -0.11229115 0.0489201 -0.021787398 0.21616589 0.43418467 -0.4283632 -0.1837764 -0.3018449 0.15000816 -0.6745435 -0.050496757 0.054077774 -0.14309235 0.20949896 0.13669947 0.15423876 -0.17385842 -0.04168432 0.51455146 -0.20536399 -0.19502716 0.13301136 -0.0736819 -0.16307157 -0.15827818 -0.10035383 0.33377972 -0.36922598 0.15574518 0.5126729 0.37697226 -0.043283716 0.025183741 -0.09691371 0.00475468 0.13642858 0.26398617 -0.0060836202 0.24911056 0.0019630995 -0.22069326 -0.03730125 -0.1398757 0.10808255 0.4752069 -0.014193437 -0.10899041 -0.29179314 0.096618176 0.026348056 0.019395353 0.22952974 0.21499038 0.43896103 -0.5203067 0.06779743 -0.46605983 0.22226712 0.34883332 0.2192821 0.30127856 0.019556252 0.052594494 -0.013418242 -0.052035104 0.2891089 -0.21241103 0.13952978 -0.29525664 -0.11832348 0.09571578 -0.22534566 0.05608384 -0.44761264 0.15192771 0.0093408255 -0.04901871 0.0931767 -0.09964816 0.22160232 0.5190862 -0.11259007 0.20514797 0.6297296 -0.058021408 0.024637954
GTT 0.34358904 -0.09294819 0.03511444 0.08981291 0.20528716 -0.0787739 0.1542931 0.2516491 0.19156374 -0.029539583 0.32673734 -0.49080375 0.015804209 0.049678482 0.032232907 0.24807975 0.039441988 0.09920174 0.31915218 -0.38226968 -0.09531153 -0.05952882 0.13816294 -0.52632666 -0.1526618 0.21656537 -0.20120686 0.3029174 -0.007302037 0.1387336 -0.22534555 -0.22610992 0.39322257 -0.3670454 -0.15373503 0.011768908 0.024358874 -0.030980857 -0.23591125 0.05323786 0.042273037 -0.23411019 -0.062400684 0.27937618 0.2066856 0.0146412 0.23245685 -0.030388186 -0.011772474 0.14604047 0.305648 -0.32012427 0.014126618 -0.119105645 0.20143318 -0.016689738 -1.882335e-05 0.21795404 0.35715142 0.0418639 -0.4837814 -0.38212392 0.05398434 0.14330813 -0.08479123 0.17340063 0.09089328 0.32414874 -0.31119066 0.22476456 -0.3060921 -0.07904646 0.4410739 0.21177238 0.045420103 -0.05199073 -0.17842616 -0.26577553 -0.17161079 0.086512476 -0.26546913 0.18528074 -0.18877517 -0.21552317 0.170474 -0.14799835 -0.12596153 -0.35157228 0.289177 0.17184997 0.07223566 0.06772254 0.03213287 0.16867754 0.34371597 0.040404446 0.36129364 0.80881196 -0.24694912 0.01737294
CCC 0.236055 0.16784583 -0.48711956 -0.304386 -0.13559309 -0.4432214 -0.17478229 0.120929554 -0.40187138 -0.41088593 -0.2435616 0.069148265 0.072051115 0.6838421 0.563832 -0.17211543 0.23257765 -0.46202073 -0.15437351 -0.09432246 0.38427067 0.18517353 0.09605918 0.19429725 0.011347476 -0.31796533 -0.43975094 -0.28316727 -0.073393635 -0.08644848 0.772376 0.058256447 0.2117032 -0.48655897 0.22813419 0.057424538 -0.28749496 0.4008867 -0.10649365 -0.16265546 -0.6644427 0.08059419 0.44032398 -0.27465528 0.02524293 -0.20214638 -0.2047516 -0.16197811 0.014599576 0.13291945 0.11687454 0.21266691 -0.29437765 -0.14676045 0.5371456 -0.024051752 0.44203183 0.1972298 -0.35461074 0.11350223 0.24101889 0.04141245 -0.17762265 0.6762321 -0.30000582 0.014030963 -0.35630545 -0.3681458 -0.25404227 0.5458766 0.13951957 -0.30939558 0.12654541 -0.07487401 0.3975173 -0.58371174 -0.036509503 0.23075932 -0.13544814 -0.03167059 -0.097651094 -0.08143067 -0.69632655 0.60568386 0.124278374 0.2773802 -0.033867646 0.5371673 0.34805217 0.26074478 0.5386936 -0.3156522 -0.09600248 -0.19463995 -0.4514337 0.10840605 -0.28375524 -0.41810524 -0.06812776 -0.39325428
CAG -0.042790256 -0.087234914 -0.19932288 0.08999952 -0.0912579 -0.20418905 0.116133645 0.2617183 -0.11446373 -0.15405397 -0.010065331 -0.091775626 -0.0025920474 0.07191787 0.02575449 -0.24848531 -0.0364207 -0.10815128 -0.21809864 -0.24749346 0.38061735 0.08708329 0.12614468 0.025466064 -0.007778837 -0.16811654 0.04422503 -0.09839184 -0.10952109 -0.07803026 0.22737893 0.022536866 0.2841074 -0.09671725 -0.06589906 0.25640255 -0.03076473 0.058324713 -0.08859621 -0.12525168 0.26168975 -0.10335497 0.13268976 -0.043129034 0.14729424 -0.15544987 -0.38654116 -0.16064322 0.20182383 0.16914721 -0.23281756 -0.00512131 0.022477934 -0.0642395 0.045263696 0.04931712 0.08627578 -0.12394186 -0.10519362 -0.028420957 0.31153288 0.018417401 0.190155 -0.03438962 -0.27999097 0.24488668 -0.22242196 0.3223917 -0.37586576 0.036852054 0.08926873 0.16275358 0.19576237 -0.052153252 0.3052246 -0.107343845 0.30880353 0.14921448 -0.044633526 -0.0012694142 -0.17270537 -0.00245701 -0.41427186 0.5384959 -0.1544402 -0.10185924 0.27919143 0.23446235 -0.028631808 -0.019154193 0.0051950174 -0.036097787 0.11483448 0.04696853 0.09343923 0.13323574 -0.280853 -0.2624089 0.13602263 -0.12557349
TCT 0.2066869 0.09095812 -0.11072946 -0.04112562 0.035603777 -0.24944513 -0.09008844 0.058467414 0.058719087 -0.27171168 -0.0322331 -0.2734087 0.10520701 0.47104177 0.43319866 -0.10389835 0.049743228 -0.1836447 0.1433498 0.10929123 0.20667468 0.27824372 0.12620786 -0.38631126 -0.02051779 0.07375591 -0.50219566 0.070325434 -0.15035906 -0.056052983 0.155829 -0.018501885 0.07299909 -0.46384585 0.178721 -0.17642204 -0.08706639 0.20059344 -0.3281494 0.14140044 -0.5654502 0.09183749 0.006189312 -0.2708552 -0.071255974 0.019469062 0.30055863 -0.06930842 0.18230057 -0.024891142 0.3891496 -0.32383642 -0.12688714 -0.29203692 0.5220611 0.04906626 0.29969025 0.30564636 0.03736772 0.23873287 -0.27307802 -0.18002294 0.07135303 0.4333685 -0.13997434 -0.032379217 -0.3104548 -0.229916 -0.260395 0.5606236 -0.026445685 -0.3188204 0.48084068 0.006314163 -0.06585071 -0.32347056 -0.31479698 -0.39915127 -0.35533416 -0.09106911 -0.37850478 0.08210462 -0.50931925 0.065649234 0.13144082 -0.049525674 -0.22677557 0.058145545 0.46439376 0.44305733 0.5708506 -0.047794048 -0.058098733 -0.15823652 -0.19801655 0.1491847 0.13291514 0.4572303 -0.45167488 -0.35010588
GTG 0.4739977 -0.25128052 -0.23239923 -0.081262946 0.058141105 0.020306949 0.37853342 0.27942353 0.07710584 0.044022117 0.31734896 -0.45113093 -0.17051558 -0.0958731 -0.04452744 0.049953118 0.027325654 0.2278846 0.4422839 -0.45774457 -0.29392225 -0.53632134 -0.03714908 -0.47312573 -0.22807863 -0.06328549 -0.18201393 0.23486403 0.13097368 0.20746888 -0.23149285 -0.06872464 0.67156386 -0.29458368 -0.26559407 0.22277288 -0.17756924 -0.14687687 -0.2656563 -0.07975849 0.22498395 -0.26729724 0.39410436 0.53825 0.46576294 -0.032801557 0.14950535 -0.13389288 -0.010888591 0.19674343 0.27653423 -0.053451166 0.17350383 -0.06312743 -0.14572693 -0.29311866 -0.13741821 0.28078306 0.58167046 -0.040227354 -0.15560912 -0.33578008 -0.04498006 0.04466778 -0.035951417 0.095217004 0.30201876 0.5804593 -0.661615 0.07866546 -0.4459164 0.22366118 0.42286322 0.22623125 0.5343755 0.03153869 -0.0419835 0.15693349 -0.059792913 0.26360777 -0.25576645 0.107474744 -0.50724036 -0.04118511 0.15659335 -0.3221381 -0.08123311 -0.4342882 0.34524775 0.03966524 -0.14471672 0.081537 -0.14974235 0.26258942 0.585126 -0.18052104 0.27950278 0.7441545 0.0790682 0.0934913
TGT 0.36128786 -0.21187258 0.075292125 -0.08263096 0.16288708 -0.19870037 0.10515074 0.3469745 0.16123323 -0.07668578 0.2645578 -0.4949178 0.00055753434 0.044912286 -0.049124118 0.23066445 0.124269985 0.08974041 0.46888965 -0.39062464 -0.08777146 -0.15251105 0.1991738 -0.6849792 -0.1694955 0.21561225 -0.3001517 0.24196279 0.1392583 0.14557537 -0.214958 -0.08628457 0.35151893 -0.45356452 -0.16124044 -0.073594674 -0.01858256 -0.12769899 -0.3165588 0.006202495 0.06403561 -0.25850895 0.044747412 0.4063231 0.25407922 -0.03138463 0.32582054 -0.09135191 -0.02572126 0.12997855 0.4341842 -0.18698874 0.09573228 0.0033093297 0.014382487 0.051821068 -0.05070285 0.23860432 0.43905985 -0.03216359 -0.3498451 -0.38916653 0.09449726 0.30142877 -0.022989137 0.29435003 0.09497743 0.24639276 -0.24990869 0.25306776 -0.33464536 -0.10205317 0.42221043 0.2597004 0.09146541 0.012940592 -0.1484837 -0.16571769 -0.14937198 0.30551744 -0.26360783 0.26984137 -0.22661068 -0.3367495 0.20536846 -0.1480175 -0.035504296 -0.31460887 0.25024164 0.1878894 0.2616309 -0.013320541 -0.11805739 0.1627368 0.39950344 0.001728652 0.33002618 0.78506804 -0.38253868 0.050935406
AGC -0.0536261 -0.19981138 -0.24003062 -0.052637264 -0.05401445 -0.13600397 0.31103522 0.30147317 0.008717776 -0.15832815 -0.08650954 -0.20083202 -0.15188561 -0.05122122 -0.15814577 -0.32870635 -0.10750919 0.14765024 -0.11011699 -0.15976429 0.31501853 -0.05608425 0.379631 -0.17247653 0.22890626 -0.15240046 0.048079405 -0.22086081 0.105366126 -0.032550797 0.25049615 0.17896774 0.309162 -0.108267866 0.14329639 0.1660243 0.045333583 -0.0861735 -0.12814365 -0.22827597 0.17023836 -0.12287101 0.07837477 -0.10349618 0.1274253 -0.06239528 -0.4155083 -0.17092372 0.1369108 0.016383914 -0.056581687 -0.10122211 0.067196295 -0.12303866 -0.194979 -0.08428853 0.12987462 -0.22757554 -0.078292176 0.22073033 0.34211817 -0.08082844 0.46543014 -0.08855668 -0.14392385 0.16154307 -0.08455907 0.3604342 -0.5189255 -0.025143431 0.036676344 0.22586375 0.18453474 0.06844745 0.15010707 -0.16698706 0.37645933 -0.0008043237 -0.14316568 0.039368514 -0.21426964 -0.09237647 -0.19701168 0.21452758 -0.22680555 -0.31557614 0.46623412 -0.007336019 -0.1579808 -0.050164256 0.004996095 0.07985105 -0.095982514 -0.0062037273 0.27034706 0.14343406 -0.14765796 -0.3957428 0.0670629 -0.08075559
TCC 0.2134135 0.16803996 -0.18588403 -0.1629295 -0.007399714 -0.35291004 -0.23484652 0.079340585 -0.2764595 -0.3087558 -0.10197898 -0.12216452 0.0806458 0.553163 0.49124995 -0.08296538 0.16414022 -0.45168874 -0.023265988 -0.109559305 0.37740937 0.30391726 0.17978063 -0.045339346 -0.14472829 -0.02187657 -0.46712488 -0.1338302 -0.06945623 -0.09194198 0.41397968 -0.06400989 0.15494183 -0.41487637 0.21838814 -0.07044767 -0.16460808 0.35275435 -0.18272728 0.019105889 -0.5500129 -0.03314858 0.24217692 -0.112079345 -0.033523455 -0.179953 -0.01692837 -0.12276896 0.058494218 0.120799735 0.21957904 0.08783642 -0.21009812 -0.069773234 0.5377128 0.119834006 0.36624524 0.18652149 -0.24169968 0.043775126 -0.051688258 -0.05733628 -0.19495353 0.66818774 -0.20831652 0.14058156 -0.38400027 -0.27775067 -0.17025116 0.57717943 -0.01702059 -0.34603024 0.25960448 -0.07998565 0.13168964 -0.42570484 -0.11213482 0.023802688 -0.12833863 -0.0599185 -0.27443737 -0.0032112002 -0.5802011 0.41926888 0.119475104 0.30206168 -0.0961594 0.41855243 0.3705658 0.3187935 0.55718005 -0.27661073 -0.019636713 -0.13454685 -0.37831652 0.1795152 -0.106833644 0.059755865 -0.3177889 -0.32169193
CAC -0.060681082 0.17065553 -0.057493642 -0.017496282 -0.011575881 -0.42845505 -0.13383763 0.058501046 -0.12441637 -0.36973822 -0.3143279 0.0016036413 0.07136853 0.36373577 0.47330064 -0.31567267 -0.19098504 -0.44508252 -0.3008103 -0.13238648 0.6158875 0.558425 0.25240314 -0.010748904 -0.04924142 -0.04650926 -0.25067103 -0.27192816 -0.37456912 -0.23133428 0.49014908 -0.042479217 0.16100247 -0.12626098 0.14560664 0.0049077338 -0.16450149 0.46811205 -0.116607316 -0.02256821 -0.27173948 0.0017189212 -0.045686577 -0.31974876 -0.049149163 -0.37754303 -0.4017996 -0.23090962 0.23634228 0.195736 -0.12122879 0.04422472 -0.13420685 -0.14606151 0.43515733 0.3571376 0.33083853 -0.12702172 -0.5213587 0.07524113 0.21432611 0.19319035 -0.12854487 0.31036085 -0.23927273 0.20040599 -0.5661586 -0.10172025 -0.1468984 0.38550654 0.120130576 -0.124855824 0.23741513 -0.18513142 0.18927267 -0.39949447 0.18109961 -0.05851297 -0.14497384 -0.2210218 -0.24667482 -0.03717542 -0.5888573 0.8433871 -0.1064405 0.2902693 0.21341267 0.6264478 0.03003611 0.12917362 0.5036202 -0.27610448 0.15449949 -0.17989112 -0.47820336 0.45418727 -0.3044549 -0.36013997 -0.23850827 -0.44760218
CCT 0.16881779 0.12464968 -0.33164966 -0.18411669 -0.04138978 -0.3415929 -0.09414501 0.070171386 -0.022075778 -0.32495213 -0.19584069 -0.14246693 0.14860153 0.57291573 0.4857218 -0.18204218 0.07069769 -0.25918677 0.030649532 0.112685904 0.28240782 0.2641202 0.07081599 -0.17900927 0.09660228 -0.1434661 -0.45110503 -0.106039636 -0.17592293 -0.10695893 0.4737482 0.07921835 0.09402833 -0.50610226 0.19577634 -0.110319935 -0.18955256 0.2800419 -0.24228595 -0.022043265 -0.6408339 0.17083344 0.13313091 -0.44467244 -0.07252191 -0.042780016 0.14590164 -0.13365859 0.13584122 0.0071913283 0.27485517 -0.2242592 -0.17246723 -0.30807686 0.5644861 -0.010909611 0.40857524 0.27789104 -0.13469733 0.29149154 0.004283597 -0.08498186 0.041606564 0.46841314 -0.21356751 -0.12350424 -0.3494694 -0.33777517 -0.26020405 0.58262926 0.11392313 -0.3425996 0.3856011 -0.0014281985 0.10998013 -0.48715213 -0.2373647 -0.26675323 -0.3589714 -0.08880789 -0.20592149 0.038225755 -0.61897624 0.21797416 0.13145423 -0.034346048 -0.18399918 0.2394558 0.37021685 0.38403577 0.6105332 -0.13223402 -0.123895034 -0.23344484 -0.3279841 0.16204712 -0.028411366 0.025826784 -0.2952039 -0.43619043
GGC 0.1572229 -0.3297701 -0.30463105 -0.3070006 0.36664084 -0.26028305 0.54279745 0.2556594 0.057113547 -0.19911756 -0.029421356 -0.39101458 -0.52944064 -0.35128823 0.06002873 -0.3916332 -0.48936915 0.020434354 0.2904807 -0.22087319 0.24184509 -0.25012013 0.2909434 -0.5690976 0.11899966 -0.1870916 0.03772859 -0.23111391 0.21194163 -0.104561806 0.267583 0.07294358 0.54628116 0.19679274 0.13102144 0.17013972 -0.26226914 0.07717859 0.08131908 -0.24905786 0.51210386 -0.501309 0.45526525 0.32453275 0.35999522 -0.10191907 -0.5387526 -0.25763363 0.124387845 0.28160062 -0.036334205 0.2677434 0.44001365 -0.0008578683 -0.28925124 -0.047506522 0.05820748 -0.093581125 0.123194925 0.08532111 0.3493619 0.049125224 0.087370306 -0.204385 0.019096471 0.17965828 0.12583415 0.53370345 -0.8525265 0.0026870985 -0.61838114 0.44185892 0.28274336 -0.07157612 0.47261795 -0.2950354 0.42688808 0.15856285 0.039307002 0.13070686 -0.24934967 -0.03151958 -0.6692192 0.47271004 -0.014415476 -0.2635266 0.295298 -0.21541142 -0.21231326 -0.323754 -0.24624002 -0.046702914 -0.073535785 0.052149933 0.2880152 0.07712254 -0.08797532 -0.03220347 0.16722964 -0.22930154
AGT 0.14640778 -0.17012699 -0.106547005 0.04449982 -0.100470364 -0.06050917 0.20995584 0.3754327 0.070972085 -0.07443439 0.22182043 -0.33624175 0.13157123 0.091904595 -0.28829494 0.06304886 0.28129065 0.31913066 0.06005689 -0.3656707 -0.08100118 -0.15832536 0.22395997 -0.28612775 0.087117024 -0.012514106 -0.0970104 0.13836877 0.06828445 0.14034747 -0.08171806 0.07582683 0.34636372 -0.43756592 -0.13527414 0.14990188 0.1930151 -0.29569164 -0.32677174 -0.13354824 0.05035665 -0.03919042 -0.12438412 0.10267981 0.15292941 0.020814583 0.022337591 -0.034542136 -0.01114111 -0.070535325 0.19579706 -0.3519702 -0.09091105 -0.12651747 -0.107035704 -0.1358432 -0.008130468 -0.04056658 0.25075394 0.1382801 -0.040708788 -0.3893371 0.47338104 0.0988977 -0.16652489 0.1976424 0.026570309 0.2799433 -0.31182882 0.0025757423 0.08874661 0.07396399 0.2735091 0.32208857 0.066602126 0.015134257 0.07857182 -0.16514328 -0.25287333 0.20146853 -0.16699769 0.07892058 0.0399343 -0.28000858 -0.12269007 -0.30628297 0.22380611 -0.25118715 0.15031391 0.18908493 0.1319483 0.23778115 -0.12980525 0.1955128 0.50971454 -0.067676455 0.10845193 0.2077537 -0.07264944 0.0987408
ACT -0.026657432 0.14850949 -0.011323782 0.14527807 -0.24471736 -0.21599826 -0.0032213444 0.19034083 -0.029182607 -0.15750425 -0.12943724 -0.056685694 0.3253098 0.33653933 0.018912928 -0.12842539 0.24762179 -0.08688349 -0.21607481 -0.028823843 0.21897785 0.33828768 0.05392681 -0.14804146 0.15736516 -0.036448713 -0.34565887 -0.018360013 -0.162736 -0.16515906 0.25644815 0.15748322 0.011410887 -0.39047226 0.08028879 -0.05363735 0.14984569 -0.020249434 -0.24663723 -0.118103825 -0.35365584 0.13247332 -0.18559481 -0.35257173 -0.09859568 -0.10912476 0.078842916 -0.094687425 0.2136974 -0.092874095 0.08569899 -0.39102677 -0.25394404 -0.23914462 0.25895804 0.06764961 0.20397758 -0.048582204 -0.08665049 0.2522766 0.15010656 -0.121927015 0.36143917 0.32245204 -0.20316549 0.14071444 -0.39808434 -0.057924822 -0.08926389 0.37241665 0.30528468 -0.09637047 0.35888293 0.033487704 0.027196314 -0.18100639 -0.012721223 -0.36413917 -0.26771048 -0.06744862 -0.13381968 -0.045686685 -0.29857406 0.108077705 -0.15253896 -0.2059477 0.0923002 0.13009048 0.14072001 0.3671435 0.5800644 0.03306394 0.046547074 -0.06449978 -0.010920726 0.09186962 -0.047681104 0.10671538 -0.2564339 -0.30988327
CTA 0.24079491 0.15383509 -0.2082356 -0.0029874237 -0.1173049 -0.23277521 -0.105883464 0.29640314 -0.17270817 -0.105714805 -0.014724363 -0.12563267 0.402762 0.50143516 0.03406473 0.10006217 0.40481976 -0.11843791 -0.16944546 -0.15592986 0.27683255 0.22863702 0.15711798 0.116578534 0.014642071 -0.1551678 -0.24987052 -0.0062992587 -0.043398272 -0.07122755 0.29294077 0.0012408296 0.1677497 -0.5660592 0.05708888 0.02855913 0.16242997 0.038815565 -0.26754367 -0.11637289 -0.42317736 0.15266585 -0.018517615 -0.15670553 -0.09609442 0.108270355 -0.02303923 -0.040652867 -0.03419979 -0.03156081 0.13987155 -0.35108203 -0.39622387 -0.25074834 0.4715349 -0.06408539 0.18881986 0.08517894 -0.17496592 0.104807995 -0.022087486 -0.25374904 0.16996203 0.5090495 -0.28244781 0.16395733 -0.2837446 -0.19447711 0.0022221021 0.38270152 0.24230616 -0.29708368 0.2345388 0.0897164 0.019082299 -0.3110403 0.020070396 -0.24409725 -0.22059573 0.08502138 -0.069892816 0.094981335 -0.24285743 -0.09049496 -0.13283773 -0.012655628 -0.028693879 0.14086291 0.25380912 0.288761 0.5138198 -0.03710738 -0.01861276 0.06200752 -0.046772696 -0.06777791 -0.06651732 0.03862567 -0.26355496 -0.19435707
CTC 0.18831867 0.08533576 -0.38677898 -0.14018206 -0.20355769 -0.23766676 -0.35479295 0.09753791 -0.26607427 -0.011649373 -0.036912832 -0.0872314 0.32288894 0.6685121 0.42042845 -0.1021399 0.4924587 -0.6087833 0.09286898 -0.1548509 0.28037187 0.002919617 0.018743517 0.1536231 -0.19728863 -0.3224569 -0.41624215 -0.11664087 -0.10091304 -0.10401346 0.7475225 0.049035072 0.16343367 -0.69817185 0.08746738 -0.15050349 -0.21965536 0.2581607 -0.17407033 -0.14229482 -0.4947974 0.14229491 0.44938114 -0.19244425 -0.057001982 -0.101798385 0.08663673 -0.082998335 0.0026605157 0.20531109 0.232312 0.035955213 -0.2417615 0.077762455 0.4669042 -0.055380285 0.4138404 0.44085416 -0.2194783 -0.017636951 0.05359189 -0.08983658 -0.18807441 0.6846703 -0.31536722 0.11490229 -0.3607276 -0.3467705 -0.10976115 0.510369 0.14787841 -0.3371677 0.29387328 -0.030292435 0.4119872 -0.46827734 -0.18534718 0.25647438 -0.11398401 0.03833719 -0.25018126 -0.0140405 -0.75503194 0.3609059 0.058862522 0.060820065 -0.13410266 0.5063712 0.46123356 0.36187622 0.51785445 -0.27748722 -0.25128528 -0.028563505 -0.24582736 0.15770486 -0.11638182 -0.0015821392 -0.24789864 -0.21848671
CGA 0.07298778 -0.08385993 -0.22076836 -0.36591703 0.2651787 -0.2532582 0.38013116 0.18315738 -0.20336643 -0.23824315 -0.07555817 -0.37028402 -0.2894092 -0.20612179 0.061950073 -0.3917393 -0.2907386 -0.06028404 0.15018699 -0.2913258 0.12207777 -0.115719795 0.26874298 -0.3902631 0.12957655 -0.2818403 -0.008848041 -0.23227875 0.054851905 -0.1882396 0.29703408 0.11069013 0.47213686 0.12117458 0.023514315 0.16045 -0.161921 0.1298451 0.06753878 -0.3092998 0.31281453 -0.43581694 0.26004884 0.32551414 0.19278571 -0.19592896 -0.4814466 -0.2748188 0.031128818 0.2151138 -0.07446773 0.19722585 0.19999626 0.0071918857 -0.16678996 -0.099999696 0.106748104 -0.12828332 -0.07179702 -0.017208815 0.4346714 0.12496638 0.032339986 -0.093162335 0.007168415 0.23582512 0.103335775 0.3181132 -0.6824749 -0.029700967 -0.4410987 0.4393521 0.25515497 -0.008834049 0.47530586 -0.28487137 0.34670892 0.10135632 -0.099514194 0.15549621 -0.10297041 -0.16400212 -0.56773347 0.45745847 -0.032875024 -0.1697629 0.3287253 0.055756144 -0.14806543 -0.1569051 -0.10208606 0.0391523 -0.056552038 0.1395553 0.31642225 0.15793294 -0.02551295 -0.069307365 0.2014288 -0.28718752
TAC 0.1121652 0.23514038 0.1487691 0.20468055 -0.05213382 -0.30137154 -0.2517508 0.24856648 -0.09627328 -0.123012155 0.08655075 -0.17595284 0.37204203 0.4502179 0.10060068 0.19052325 0.31798628 -0.21071081 -0.2041832 -0.40186518 0.3194774 0.3450148 0.16117445 -0.016482282 -0.19340195 0.13698503 -0.26627994 0.13433664 -0.25913405 -0.117009535 0.15497331 -0.13466746 0.17061736 -0.4715989 -0.13329624 -0.03938651 0.20871413 0.22178791 -0.27101147 -0.033781726 -0.19758005 0.06939446 -0.26542243 -0.056659326 -0.122671045 -0.16985671 -0.013806677 -0.038038157 0.006155792 0.14143112 0.0701098 -0.2683589 -0.3816203 -0.11685563 0.4645454 0.19569619 0.1284365 -0.0036539624 -0.23063655 -0.051989365 -0.18859167 -0.2007006 0.055305813 0.42193797 -0.2513033 0.31402367 -0.33136252 -0.08045419 0.12007343 0.33710933 0.14936236 -0.2877305 0.2336983 0.1291032 0.034759864 -0.10435808 -0.005447459 -0.1980579 -0.16495873 -0.055998985 -0.14790554 0.15002997 -0.15816537 0.13950635 -0.20779204 0.19513367 0.113465995 0.23184969 0.17031956 0.2594458 0.4837255 -0.0832707 0.16476329 0.17606309 -0.08946397 0.18897669 -0.086663544 0.27675956 -0.39514732 -0.0883954
TGC 0.23824206 -0.2130987 -0.22405986 -0.27248985 0.1172044 -0.26560494 0.16091837 0.252773 0.115201965 -0.13087304 -0.08686923 -0.26314124 -0.18095428 0.054123327 0.09371651 -0.14062077 -0.14254408 -0.07115578 0.28323418 -0.013481085 0.24138375 -0.08917983 0.28750873 -0.52296007 0.030765325 -0.057289757 -0.22232038 -0.14966242 0.21959445 -0.031164877 0.19444013 0.112470835 0.21105477 -0.26626745 0.18086559 -0.12874137 -0.19490351 0.04727576 -0.1579226 -0.11932801 -0.07421323 -0.16773719 0.28247884 0.03674017 0.19332285 0.030351168 0.033992022 -0.17094871 0.08143754 0.09714676 0.2904118 -0.037467975 0.18338677 -0.12537621 0.060915846 -0.023516286 0.15170091 0.16015351 0.13696688 0.14390099 0.04525916 -0.14873308 0.14135338 0.2118762 0.0055178637 0.10952136 -0.022497412 0.1546744 -0.38043627 0.28626794 -0.25544956 -0.12164087 0.33961537 0.06278964 0.09990771 -0.2618102 0.032772295 -0.11278282 -0.12720372 0.14886458 -0.2393078 0.11437584 -0.4733234 -0.052945502 0.19314009 -0.24298051 0.090713404 -0.07176554 0.047193676 0.08249412 0.28609362 -0.15739532 -0.1946704 -0.099471524 0.11652765 0.1189783 0.0860429 0.17364672 -0.28011414 -0.2145274
TAG 0.09512194 -0.028720645 -0.012769279 0.29017016 -0.17293751 -0.121742226 0.089469485 0.5471151 -0.16341048 0.0709408 0.33364806 -0.2552977 0.28158134 0.10958444 -0.4692821 0.19702607 0.48362613 0.12636738 -0.2284153 -0.508679 0.20605488 -0.08683629 0.12437871 0.036410462 -0.062702306 -0.03161661 0.0558307 0.19364217 0.07495851 -0.011432936 -0.019821405 0.008202162 0.26650006 -0.44298404 -0.25672168 0.23515962 0.44073674 -0.20583782 -0.23147117 -0.22210085 0.37207624 -0.07139317 -0.1199751 0.20481008 0.030211952 0.0434789 -0.14669059 0.0031220806 0.007753372 0.06553344 -0.117871635 -0.33290058 -0.22506617 -0.06720536 0.038746595 -0.1312473 -0.079697706 -0.112822965 0.097642556 -0.05956441 0.056948207 -0.38199505 0.53936523 0.05010876 -0.32409945 0.41990396 -0.038712937 0.3645541 -0.11491319 -0.06641511 0.16047186 0.04350388 0.1731464 0.23803762 0.11757932 0.11065512 0.25181922 -0.01593783 -0.050357975 0.17837049 -0.0486378 0.1735937 0.046690147 -0.1682506 -0.38246122 -0.25844508 0.3028539 -0.105117455 0.006764359 0.088368915 0.04809208 0.19495104 0.1685256 0.37704155 0.5262533 -0.15818585 -0.13490532 0.2011774 0.023579303 0.18066174
GCC 0.38836235 -0.06629959 -0.5230716 -0.38151178 0.07400907 -0.28474605 0.1468922 0.13265581 -0.42974693 -0.24471506 -0.13978721 -0.114813514 -0.20483975 0.2759724 0.3983708 -0.22513568 -0.0908821 -0.3346171 0.055839803 -0.18597987 0.33034584 -0.24438179 0.06311498 0.04951044 -0.08296153 -0.5092871 -0.2461113 -0.34035006 0.1773145 -0.09932274 0.5832334 0.07342956 0.47577435 -0.2107631 0.121806435 0.14312361 -0.40893412 0.35780963 0.075160496 -0.28280056 -0.060285054 -0.19139807 0.78958154 0.14127514 0.2197746 -0.100107454 -0.36874664 -0.2676471 -0.03110947 0.32929933 -0.08278764 0.35455242 0.065104075 -0.02979002 0.26998731 -0.23435898 0.2638244 0.27678856 -0.13659965 0.040701948 0.39190736 0.09478798 -0.2674542 0.34872827 -0.29692104 0.058694884 -0.023115959 0.047253277 -0.49481997 0.32868356 -0.30780792 -0.039958663 0.2245203 -0.15972494 0.6099341 -0.59621805 0.12233012 0.4858127 0.075617835 0.12400364 -0.05263027 -0.031342305 -0.94592947 0.68946695 0.08858198 0.10321286 -0.027700072 0.27447203 0.21680152 -0.10690968 0.06148173 -0.29128888 -0.16024236 -0.065701835 -0.115037896 0.008550196 -0.3212537 -0.3476432 0.22033891 -0.30656424
GTA 0.31788677 -0.0010680101 -0.0064861 0.18263909 0.050198086 -0.09034196 0.19747865 0.40457368 -0.021541283 -0.04716009 0.1770307 -0.3653074 0.20878439 0.03352779 -0.20258208 0.23686656 0.11413434 0.17432894 -0.019580623 -0.48895377 0.19176765 0.094370015 0.23273963 -0.16409539 -0.100824594 0.12339215 -0.022850206 0.13024595 0.005244502 0.063740805 -0.20752828 -0.16921495 0.3988203 -0.33091524 -0.11191964 0.2029102 0.23873577 -0.107882194 -0.30100077 -0.07928447 0.043982245 -0.16151963 -0.1252553 0.2528841 0.13536823 0.066525236 -0.1316239 -0.08861385 -0.044243302 0.055662617 0.07042701 -0.33043337 -0.23101485 -0.22142965 0.21935123 -0.055268567 -0.039865706 -0.1395009 0.03423461 0.051478025 -0.20135681 -0.34978467 0.19194162 0.1763913 -0.2179775 0.28582808 -0.068173684 0.33251393 -0.13939482 0.10674804 -0.048659734 -0.088399515 0.26130387 0.19996463 0.00020446695 -0.045820314 0.20233625 -0.25085577 -0.11109834 0.11576193 -0.0888747 0.21080637 -0.04011908 -0.19256084 -0.18616359 -0.08938895 0.063957155 -0.17239067 0.10120372 0.042054575 0.1500171 0.10336259 0.12096116 0.2775896 0.306996 -0.07423287 0.047975928 0.32584956 -0.14123464 0.007846308
GAC 0.0023128993 -0.010409482 -0.095614485 0.025765626 0.21039784 -0.3002059 0.23805624 0.18003604 -0.12924199 -0.29281092 -0.06943927 -0.23441654 -0.16543527 0.01323007 0.2911916 -0.3014826 -0.22393553 -0.113847636 -0.13986905 -0.29130647 0.23526011 0.16134617 0.13712183 -0.1962084 0.11462178 -0.13317919 -0.14540309 -0.0964805 -0.18498187 -0.19107138 0.3434736 -0.01807114 0.3915197 0.12365342 -0.026020436 0.22657086 -0.045569133 0.29004773 0.02753629 -0.13758521 0.17112373 -0.24023107 0.06434352 0.07833267 0.107430026 -0.23782961 -0.5814374 -0.11096427 0.14307785 0.25176293 -0.15057552 0.14008145 0.05232813 -0.015093452 -0.03417225 0.07914669 0.10294536 -0.2476574 -0.18270062 0.06361121 0.2773918 0.18409573 0.024034368 -0.057865076 -0.16186093 0.18103096 -0.1273597 0.2455039 -0.4916328 0.080683194 -0.14776275 0.3284396 0.17264763 -0.11215046 0.39201328 -0.2141556 0.3608529 0.136925 -0.0040047253 -0.07831391 -0.1527333 -0.11410942 -0.46889853 0.72590995 -0.20685314 0.1089326 0.26875016 0.11496948 -0.057462394 -0.11801613 -0.016199004 0.045832433 0.19558392 0.08780776 0.041394833 0.22565039 -0.2219609 -0.15246803 0.15173608 -0.2828959
CTG 0.290753 -0.09740994 -0.35970742 -0.1923291 -0.1919169 -0.07221019 -0.007414215 0.16617417 -0.07942979 0.08883343 0.07563144 -0.2090154 0.15212901 0.3722194 0.050916202 -0.070151605 0.3878047 -0.088358805 0.2625644 -0.103031695 -0.14168946 -0.33046874 -0.055143457 -0.13158612 -0.12861359 -0.3273151 -0.34791377 0.05815647 0.07283783 0.037357047 0.24450491 0.12096236 0.35096386 -0.56511676 -0.07155438 -0.04201248 -0.19229592 -0.049208965 -0.22965032 -0.13515696 -0.25001892 0.11761694 0.37875834 0.057073276 0.15696071 0.04866584 0.2959803 -0.08558806 0.008377649 0.035554267 0.34135827 -0.13091922 -0.02059527 -0.025517827 0.105896555 -0.2704825 0.113433346 0.42596462 0.29408807 0.051076442 0.009273897 -0.25553387 -0.038485393 0.40433112 -0.095277585 0.0017277498 -0.015430556 -0.009314185 -0.3301248 0.33866373 -0.036493253 -0.06614668 0.40372574 0.11735278 0.44547158 -0.1985282 -0.1874268 0.0862723 -0.18165797 0.19785985 -0.23123984 0.0029782022 -0.5697478 -0.068913005 0.09116174 -0.27497575 -0.1644324 -0.074056484 0.46844503 0.3185127 0.2900954 -0.047094956 -0.29203665 0.031432815 0.24271122 -0.1147414 0.14363731 0.4012319 -0.11096592 -0.04652953
GCT 0.29540697 -0.030515369 -0.33994597 -0.14053997 0.025947616 -0.14845493 0.12089538 0.13591287 -0.119281776 -0.08497872 -0.007682414 -0.2816884 0.07689352 0.28261098 0.16527133 -0.07971178 0.048823617 -0.08325467 0.19376281 -0.041191638 0.14465557 -0.15727323 0.046078213 -0.14869702 -0.01465572 -0.2725343 -0.23388314 -0.06656359 0.04537528 -0.0493826 0.25022092 0.0798507 0.30914363 -0.37786484 0.016822385 -0.020482304 -0.1689157 0.124591984 -0.13187994 -0.16196685 -0.15117128 0.03213739 0.35667744 -0.037689373 0.051297575 0.10407206 0.06633968 -0.16182779 0.032831993 0.10244545 0.08920698 -0.1562588 -0.017778644 -0.17703842 0.3310412 -0.2631479 0.17743558 0.30738264 0.06389681 0.17231533 0.059618853 -0.15522271 0.02339564 0.2618351 -0.23093323 -0.015149865 -0.046023175 -0.03515275 -0.30853227 0.3338574 -0.1323888 -0.14299601 0.39746895 0.015895864 0.27542704 -0.36861333 -0.09393899 -0.035578907 -0.14713737 0.080644414 -0.10348361 0.08777206 -0.6071426 0.07121581 0.0061338213 -0.20895782 -0.15117425 -0.025576195 0.30764547 0.10072829 0.17680341 -0.029289478 -0.19131848 -0.0314216 0.058889754 -0.05131804 -0.04989664 0.11545001 -0.016963255 -0.2075803
CCG 0.34744382 -0.010605215 -0.70462054 -0.34015176 0.01577795 -0.2851919 0.37546262 0.096622646 -0.23936631 -0.5026183 -0.24624659 -0.046046823 -0.2966489 0.2821636 0.6805558 -0.47893322 -0.19827479 -0.13718829 -0.19579703 -0.02322077 0.2292541 -0.096833475 -0.03950254 0.01729611 0.20302887 -0.53649294 -0.40779075 -0.3153016 -0.06581057 -0.06481408 0.6614681 0.123168446 0.45182973 -0.17014977 0.1749403 0.30460545 -0.34154224 0.36205426 -0.06377801 -0.15886305 -0.3545051 -0.019396111 0.59305257 -0.24025378 0.1894681 -0.080748856 -0.5020785 -0.1970201 0.07564739 0.18579648 -0.05793281 0.0770855 0.004328133 -0.39894012 0.27507758 -0.34119657 0.32910046 0.22084695 -0.15659489 0.3702639 0.47047758 0.172525 0.029091468 0.10690776 -0.2951959 -0.28923267 -0.014626321 0.035999015 -0.86832905 0.24403296 -0.12516874 0.1493541 0.19692956 -0.19738683 0.5813682 -0.6501162 0.023947835 0.31373137 -0.2564265 -0.05103317 -0.08088644 -0.116288155 -0.91289884 0.89826363 0.045086917 0.018315114 0.0031562774 0.21998821 0.24896385 -0.026481725 0.13533773 -0.06286281 -0.10823645 -0.14333788 -0.15825747 -0.020087436 -0.31924504 -0.52445054 0.3249461 -0.49547955
CGG 0.3680606 -0.22856115 -0.4339922 -0.4245591 0.31465775 -0.20560129 0.50425535 0.17338249 -0.19124018 -0.21806806 0.07935941 -0.42520574 -0.45659924 -0.1839835 0.20946401 -0.35473773 -0.27470964 -0.0719953 0.37330252 -0.3405855 -0.018429523 -0.48148462 0.048926942 -0.44646356 -0.014619924 -0.42553142 -0.08941267 -0.12767291 0.23098141 -0.065541394 0.27721804 0.08766925 0.63611275 0.08132793 -0.06702922 0.20569697 -0.3979369 0.10444191 0.08478598 -0.33202946 0.40705696 -0.4603632 0.732168 0.5083169 0.37839445 -0.08405905 -0.3995498 -0.29733667 -0.013737223 0.39046738 -0.0070211147 0.28407857 0.3650399 0.008612238 -0.18140182 -0.2676392 0.032442637 0.1816227 0.17161801 -0.07111719 0.33413193 0.038726922 -0.17848162 -0.08041885 -0.07121738 0.13768242 0.2803197 0.43569663 -0.9298396 0.012951656 -0.6949448 0.46705478 0.35479456 -0.0578116 0.7236489 -0.3454883 0.2726274 0.3828236 -0.0062865475 0.26528585 -0.12101694 -0.032760914 -0.9304219 0.54478246 0.17535634 -0.21615988 0.0944455 -0.16866553 0.052850533 -0.24069569 -0.26436076 -0.053673457 -0.21905655 0.18978353 0.36230245 -0.031333927 -0.039716598 0.105130024 0.33270004 -0.19787139
TCG 0.29416502 -0.04160857 -0.302912 -0.11406393 0.1397831 -0.1251871 0.28476176 0.030761465 -0.047025584 -0.31923634 -0.027219057 -0.2314828 -0.27230394 0.12968083 0.52432144 -0.32802254 -0.18535367 -0.05896891 0.048810985 -0.07423092 0.013279908 -0.060125966 -0.020199241 -0.33788553 -0.004911241 -0.16429004 -0.44334453 -0.038599722 -0.09099113 0.010328766 0.16274442 -0.029461864 0.35366595 -0.10680197 0.048119586 0.1631892 -0.23317678 0.22465283 -0.14606145 0.058254898 -0.18636231 -0.14433882 0.3393214 0.037353557 0.18926352 -0.06980668 -0.15672314 -0.098284185 0.14458591 0.13025977 0.15891327 -0.054360572 0.13096319 -0.2534568 0.12640996 -0.1184442 0.15413117 0.23520383 0.1047224 0.21304248 0.055421617 0.0068099545 -0.02400601 0.10585273 -0.09746629 -0.13232435 -0.031134212 0.1860409 -0.7274679 0.23500209 -0.2972869 0.16546102 0.35689095 -0.12588067 0.33803764 -0.33734983 -0.12717085 0.09167773 -0.1892743 -0.069963664 -0.28465596 -0.073847756 -0.7039736 0.55232173 0.12529862 0.002388612 -0.09058623 -0.024804352 0.35918218 0.10336323 0.15058859 0.021150388 -0.028819283 -0.024805073 -0.004188406 0.020388069 -0.027085908 0.22773413 0.056179043 -0.33240327
GCG 0.39899316 -0.18872815 -0.6289307 -0.2464982 0.09494477 -0.11106621 0.5654743 0.12868005 -0.25939786 -0.29749212 -0.064825304 -0.21539961 -0.39091605 0.010482423 0.443939 -0.4726685 -0.27328396 -0.0385309 -0.04541488 -0.18115382 0.13683559 -0.40453166 -0.04647856 -0.067640595 0.0768684 -0.6176162 -0.24231151 -0.2529693 0.06397133 -0.059306454 0.43648815 0.11108935 0.63887197 -0.049807057 -0.0014961526 0.37030405 -0.34547132 0.23823065 0.0030894508 -0.24185857 0.15194745 -0.19763161 0.75622916 0.115946256 0.30797184 -0.004013789 -0.557974 -0.23501103 0.060508016 0.33038703 -0.20587103 0.10145151 0.2096173 -0.2537541 0.03309313 -0.4486669 0.12698498 0.24985093 0.025714897 0.25828806 0.49134895 0.12614265 0.02176708 -0.11262903 -0.31748527 -0.14646372 0.1679719 0.38978988 -0.9716403 0.07722491 -0.35246718 0.37534755 0.30483246 -0.20942521 0.7427363 -0.5349162 0.14661714 0.48108718 -0.07299772 0.029638687 -0.099455535 -0.07129919 -1.014516 0.868823 -0.046624925 -0.1460314 0.0484994 0.0063023157 0.20715503 -0.23665938 -0.20841481 -0.012525844 -0.13393882 0.03978299 0.15706038 -0.1002593 -0.31709504 -0.35363948 0.50002867 -0.34990227
GTC 0.4086311 -0.17137347 -0.34929827 -0.19818765 0.0587037 -0.09167335 0.019307815 0.08613329 -0.06590386 0.0036466385 0.120642975 -0.32677457 -0.08991887 0.21289721 0.37384424 -0.057682272 0.029746467 -0.3070073 0.4465239 -0.29593432 0.043069627 -0.325841 -0.026426787 -0.2500524 -0.2778793 -0.17430504 -0.2868182 0.005749263 0.0701803 0.06370221 0.30048656 -0.040656812 0.45182106 -0.3852001 -0.022131989 -0.013402359 -0.35163653 0.15571533 -0.16259998 -0.070427604 -0.09189006 -0.2028666 0.6286665 0.25158462 0.25221926 -0.06688513 0.101243325 -0.13353293 -0.050298322 0.29334158 0.30235794 0.14455558 0.095778264 0.054533567 0.19142099 -0.15977405 0.19837032 0.45057017 0.17321141 -0.047837272 -0.07917362 -0.13764767 -0.28424177 0.3554117 -0.16821648 0.048696302 0.04237736 0.15394332 -0.490732 0.3297912 -0.38437343 -0.09977333 0.37616885 0.023688018 0.50711215 -0.32163653 -0.17682694 0.32458827 -0.037641577 0.1411683 -0.2604544 0.06116563 -0.82423043 0.2950521 0.25176787 -0.051424567 -0.19679181 0.070827045 0.41671053 0.092703305 0.107471615 -0.19216917 -0.27885643 0.11777374 0.064549856 0.06945624 0.06415051 0.39826396 -0.08672124 -0.10012559
ACG 0.12814006 -0.024404215 -0.4276179 -0.10153092 -0.12885147 -0.15080285 0.47090048 0.11482073 -0.1717999 -0.34426436 -0.21432035 0.011561816 -0.2035109 0.052353233 0.32383412 -0.5378637 -0.12934104 0.029363865 -0.36572304 -0.08375655 0.09297768 -0.03335537 -0.057234745 -0.05985055 0.30174938 -0.45478207 -0.3321937 -0.24244663 -0.10251661 -0.10979438 0.465689 0.2259449 0.39105448 -0.01192504 0.08687507 0.3366411 -0.10134422 0.122729234 -0.0610259 -0.19975916 -0.11693119 -0.07050469 0.29291496 -0.17153525 0.17640077 -0.16676475 -0.5067382 -0.12945227 0.18919037 0.094006054 -0.16441959 -0.05656011 0.030814148 -0.318067 -0.08076598 -0.22724946 0.14552695 -0.051805682 -0.0709043 0.35522005 0.61696994 0.1852955 0.28517327 -0.059116572 -0.20750375 -0.119391695 -0.05934322 0.2835128 -0.79574674 0.08871956 0.018195095 0.42556652 0.21043405 -0.17236888 0.5027268 -0.37337315 0.17640811 0.19191718 -0.18735398 -0.052046534 -0.047033466 -0.2439733 -0.6883433 0.79745495 -0.14082707 -0.16203813 0.2267732 0.10518581 0.06956355 0.009502531 0.10762191 0.09150755 0.015332674 -0.04913738 0.085826494 -0.044935547 -0.25653476 -0.3983637 0.37108317 -0.4584668
CGC 0.34957856 -0.20132892 -0.6814692 -0.7534262 0.45525485 -0.4690023 0.32429522 0.09330977 -0.1862832 -0.37176117 -0.25441435 -0.42074913 -0.51634055 0.093665294 0.5297522 -0.49258998 -0.52616715 -0.39018437 0.40721193 -0.020299805 0.4064254 -0.1643798 0.2518731 -0.4133424 0.14053588 -0.51860434 -0.1564566 -0.46432668 0.2688341 -0.24268778 0.7712052 0.1731626 0.55588007 0.007907432 0.33625856 -0.031440847 -0.5551721 0.44719884 0.17775404 -0.3059586 0.002735002 -0.39564413 0.8580365 0.108191974 0.25161558 -0.026671428 -0.46020597 -0.35928428 -0.02818153 0.3735788 0.101458244 0.44757286 0.36406228 -0.09323066 0.22520679 -0.19522068 0.3981294 0.28347984 -0.12094717 0.12012124 0.421908 0.1900828 -0.30692643 0.19153726 -0.076629974 -0.075036764 0.07083659 0.031033648 -0.8912237 0.38361394 -0.7060372 0.07553911 0.3714528 -0.17320806 0.5591737 -0.8288606 0.20827816 0.19550066 -0.109072775 0.21073309 -0.15058064 -0.06716176 -1.1763761 0.6652153 0.287803 -0.067674205 0.024326123 0.12729244 0.02639024 -0.18167794 0.008562975 -0.29893702 -0.27386317 -0.121082805 -0.1276247 0.21808314 -0.12693253 -0.24596131 0.080863856 -0.5180174
CGT 0.4165532 -0.15519026 -0.33421105 -0.49525017 0.38922906 -0.30212477 0.21742173 0.12382311 -0.09848639 -0.20956305 0.08149204 -0.49876302 -0.25021 0.024860505 0.27555242 -0.13674293 -0.22289659 -0.1966162 0.5116904 -0.31305707 0.038375467 -0.22335084 0.14082578 -0.52503973 -0.07849881 -0.2515255 -0.1619717 -0.10193817 0.15169658 -0.05777786 0.24666505 -0.013564581 0.5752054 -0.13708322 -0.006682995 -0.017777007 -0.37259752 0.20807438 0.017875105 -0.17662272 0.100648895 -0.40038007 0.5322605 0.41867983 0.28495654 -0.045090284 -0.12347025 -0.24001122 -0.09667958 0.33210367 0.20367718 0.26660845 0.23426172 0.012650826 0.13832125 -0.11345859 0.124281116 0.28591874 0.15187539 -0.06418297 0.058683958 -0.042695273 -0.33655003 0.22596271 -0.030190721 0.08341178 0.16248679 0.119533084 -0.5924216 0.26975337 -0.6460783 0.050959755 0.3813297 0.040051382 0.4428457 -0.4387831 0.034118466 0.09631156 -0.091374725 0.32633957 -0.116574794 0.0775838 -0.79679966 0.26772732 0.27190462 -0.025207935 -0.09632429 -0.07887084 0.20060197 -0.04084036 0.016312165 -0.14855254 -0.20426083 0.12944564 0.12056847 0.08015642 0.10270919 0.34196836 -0.050160382 -0.24507533
