65 50
AAA -0.097253 0.828652 -0.150215 -1.092748 1.024478 0.505908 -0.073170 -0.385877 -0.519482 0.096805 -0.727868 0.282960 0.194689 0.511463 0.220107 -0.029810 -0.254704 0.520543 -1.342471 -0.138804 -0.721148 -0.694583 -0.099953 0.788815 0.817990 -0.225780 0.265599 0.316328 -0.425774 -0.250756 -0.182387 0.444525 0.004729 -0.441041 0.380845 -0.494755 0.242118 -0.780416 0.710911 -0.168312 0.590842 -0.012764 -0.499048 0.022891 -0.222992 -0.765582 -0.183425 -0.398956 -0.707903 -0.510933
TTT -0.129367 -0.866994 -0.080268 -0.305730 0.488406 -0.141904 -0.880572 0.426644 0.074464 -0.372026 -0.070687 -0.581485 0.903655 0.363311 -0.214274 0.081507 -0.785827 -0.191278 -0.766482 0.674260 0.286462 0.053580 -0.017941 -0.081667 -0.144394 0.209420 -0.816781 0.180670 0.441626 -0.312454 0.517630 0.105987 0.592467 1.060545 -0.426915 0.111276 -0.892678 0.021373 -0.338441 -0.009926 0.497691 0.768348 -0.745395 -0.094477 -0.609484 0.585693 0.092594 -0.014535 0.373341 -0.708160
GAA 0.040949 0.322053 0.269722 -0.785941 0.887662 0.363641 -0.459935 -0.839890 0.173480 0.089559 -0.344901 0.288751 0.206162 -0.230106 0.037408 0.020101 -0.031443 -0.190154 -0.408950 -0.000242 -0.186598 0.027015 -0.142975 0.185722 0.406654 -0.234463 0.009739 0.199254 -0.021276 -0.372411 -0.072238 0.247431 -0.452016 -0.596346 0.239926 -0.678133 0.275016 -0.591684 0.381436 -0.571984 -0.228758 -0.247329 -0.368086 0.055845 0.198407 -0.420651 -0.079678 0.107660 -0.415437 -0.306556
AAG -0.233588 0.743554 -0.305415 -1.115471 0.740370 -0.211431 0.011097 -0.552179 -0.235386 0.101172 -0.057875 0.037525 0.168682 0.278578 -0.270870 -0.168558 0.062442 -0.367102 -0.562485 0.003705 -0.687417 0.026390 -0.114139 0.176043 0.087693 -0.321759 0.402030 0.332059 -0.030437 -0.240022 -0.138443 -0.479941 -0.103619 -0.259841 -0.000476 -0.275306 0.314555 -0.185745 0.289140 -0.163059 0.117753 0.440218 0.167204 0.419220 0.100637 -1.004756 -0.187852 -0.279739 -0.251988 0.141251
GGA -0.020942 0.196878 -0.036568 -0.152297 0.764464 -0.307996 -0.689308 -0.472962 0.492779 -0.054088 0.025628 -0.205686 0.413865 -0.542623 -0.119142 -0.071899 -0.031064 -0.602896 0.131418 0.300046 0.056114 0.050712 0.273415 -0.486611 0.470361 0.093578 0.357567 0.366450 0.174324 -0.252930 -0.052465 0.303179 -0.790659 -0.466737 0.010401 -0.266349 0.309793 -0.615978 -0.192563 -0.095589 -0.653295 -0.545972 -0.010656 0.003213 0.515779 -0.318458 -0.024881 0.632922 -0.308558 -0.500588
AGA 0.060314 0.210097 0.113764 -1.127778 0.937268 -0.359798 -0.119769 -0.797702 0.375604 0.439723 -0.466125 0.218088 0.383166 -0.287704 -0.086884 -0.287549 0.173367 -0.482429 0.031211 -0.149616 -0.076980 0.607546 -0.091994 0.123384 -0.299098 -0.338548 0.204112 0.307913 0.044236 -0.921850 -0.305552 -0.361078 -0.369938 -0.592553 -0.169588 -0.466179 0.505028 -0.231896 0.088279 -0.360571 -0.010593 0.309203 0.258339 0.392972 0.353386 -0.299644 -0.371157 0.049251 0.085492 -0.118245
AGG -0.142823 0.476420 -0.547440 -0.461860 0.612166 -0.653517 -0.110503 -0.300242 0.030307 0.235488 0.237142 -0.282097 0.325348 -0.409398 -0.373210 -0.215395 -0.035194 -1.022167 -0.168015 0.127338 -0.488950 -0.057159 0.295869 -0.577369 0.139548 -0.051013 0.574095 0.340970 0.202768 -0.023469 -0.159202 -0.135638 -0.325935 -0.184206 -0.233083 0.011933 0.322772 -0.362089 -0.088711 0.341108 -0.187762 -0.025040 0.513354 0.411722 0.299762 -0.904407 -0.109226 0.208082 -0.170915 -0.004298
CAA -0.122301 0.896207 -0.161889 -0.247010 0.071062 -0.068768 0.678084 0.320673 -0.334146 0.319879 -0.191020 0.487798 -0.109370 0.402751 -0.099787 -0.335178 0.191470 0.678127 -0.562930 -0.245372 -0.064962 -0.630985 -0.526571 0.359275 0.095633 -0.164042 0.113838 0.169681 -0.357310 -0.233464 0.035611 -0.135559 -0.069164 -0.125851 -0.115027 0.204001 0.300211 -0.354214 0.051763 -0.152344 0.513317 0.368393 -0.237396 0.558150 0.096393 -0.765728 0.005070 -0.136823 -0.296363 -0.532342
ATT 0.202154 -0.413089 -0.018963 -0.438016 0.749875 0.229569 -0.701469 0.414762 -0.022493 -0.437098 -0.746090 -0.230138 0.200594 0.021414 0.029217 -0.086294 -0.520261 0.057361 -0.000048 0.154793 0.538076 -0.165852 -0.066755 0.451482 -0.121981 0.099159 -0.425025 0.159264 0.007158 -0.378045 0.360393 0.173341 -0.137632 0.302363 -0.447796 0.469477 -0.415311 -0.235167 -0.350718 0.049398 0.394729 0.452504 -0.494083 -0.188641 -0.405575 0.520847 -0.008018 -0.155574 0.352578 -0.794438
GAG -0.041441 -0.089151 0.096038 -0.617792 0.697928 -0.281211 -0.353164 -1.005851 0.388355 0.111778 0.246106 0.028540 0.130886 -0.596683 -0.215609 -0.029314 0.139290 -1.119137 0.174911 0.175074 -0.384840 0.577034 -0.110193 -0.584199 -0.147619 -0.205726 0.169634 0.362827 0.568199 -0.150607 -0.081444 -0.332780 -0.500630 -0.408441 -0.136721 -0.448043 0.120455 -0.234615 0.214986 -0.428657 -0.601588 -0.065047 0.104415 0.334928 0.273677 -0.713300 0.112103 0.380554 0.269520 0.486768
AAT 0.345266 0.129425 -0.149257 -0.777548 0.840869 0.462851 -0.338206 -0.022233 -0.046228 -0.212761 -1.047294 0.028378 -0.301349 0.142158 0.045884 -0.016299 -0.291006 0.449677 -0.260107 -0.051145 0.207611 -0.588533 -0.113124 0.842062 0.347546 -0.052018 0.044724 0.087436 -0.404527 0.000252 0.029091 0.377978 -0.399617 -0.268862 -0.225492 0.212788 0.061142 -0.428693 0.055912 -0.082582 0.537981 0.112317 -0.287695 -0.210316 -0.225625 0.074241 -0.237685 -0.309397 -0.099422 -0.589741
TGG 0.248957 0.269743 0.022965 0.155506 0.133233 -0.158856 -0.722092 0.155451 0.317937 -0.354373 0.190589 -0.548023 0.122736 -0.240020 -0.261320 -0.145765 -0.434009 -0.397537 0.131021 0.955710 0.049860 -0.641983 -0.083642 -0.255456 0.633495 0.374582 -0.004269 -0.001619 0.678922 0.418716 -0.047610 0.011358 -0.225384 -0.033586 0.632107 0.429681 -0.059446 -0.168613 -0.298392 0.247043 -0.565206 -0.680419 0.009471 -0.225837 0.518671 -0.037575 -0.135087 0.347731 0.170011 -0.022479
TTG 0.238864 -0.082810 0.371027 -0.252421 0.109513 0.079227 -0.900737 0.101228 0.132142 -0.267220 0.062260 -0.289112 0.430969 -0.098097 -0.269618 -0.185292 -0.772420 -0.317088 -0.216468 0.829138 0.095905 -0.257867 -0.458887 -0.073368 0.133898 0.059014 -0.876482 -0.101710 0.817647 0.091462 0.245065 -0.259619 0.352157 0.464712 0.427475 0.288364 -0.516622 0.189380 -0.351025 -0.091356 -0.156493 0.086116 -0.374872 -0.101532 0.053124 0.234109 -0.006366 -0.019087 0.418703 -0.279435
CCA -0.123280 0.505192 0.305124 0.415946 -0.625472 0.153973 0.494411 0.579216 -0.183536 0.468358 0.032466 0.706576 -0.011482 0.111177 0.412994 -0.603480 0.697187 0.061032 0.108893 -0.391486 0.325059 -0.531626 -0.153878 0.298499 -0.149750 -0.505363 0.180233 0.339606 0.241000 -0.217161 -0.263166 -0.125360 -0.310158 -0.018035 -0.085387 0.361360 0.100352 -0.270323 -0.293872 0.119838 0.507374 0.519336 -0.137186 1.000047 -0.145663 0.124981 0.046373 -0.281851 -0.153707 -0.356073
TAT 0.420387 -0.806919 -0.386481 -0.047053 0.773824 0.321473 -0.586989 0.429377 -0.030641 -0.316529 -0.890656 -0.356331 -0.409167 0.171306 0.189359 -0.026686 -0.272670 0.290730 0.395834 0.414913 0.064208 0.066234 0.070109 0.573388 0.025413 0.220398 0.139381 0.390596 -0.211376 0.577834 -0.060217 0.279008 -0.352200 -0.133008 -0.536577 0.498234 -0.392708 0.630245 -0.115006 0.315651 0.298683 0.237934 0.440112 -0.500133 -0.535207 0.837108 -0.228875 -0.517248 0.537222 -0.153992
ATG 0.305840 0.231654 0.169792 -0.438756 0.336075 0.314450 -0.375993 0.185417 0.310454 -0.543961 -0.910602 -0.050302 -0.453520 -0.396010 -0.121328 -0.325303 -0.355485 0.127163 0.783485 0.387829 -0.090673 -0.550956 -0.547281 0.343211 0.252549 -0.085850 -0.253225 -0.010520 0.215428 0.545508 -0.237395 -0.121842 -0.759793 -0.344748 0.367639 0.673401 0.069577 0.419951 -0.353730 -0.211500 -0.158637 -0.097047 0.077360 -0.496567 0.281190 0.164267 -0.255134 0.004030 0.126845 -0.238573
ATA 0.139212 -0.381855 -0.334184 -0.418150 1.014715 0.114763 -0.214399 0.514472 -0.125393 -0.212352 -1.351259 -0.086981 -0.416704 -0.301806 0.025430 -0.159870 0.256603 0.375442 0.033705 -0.006103 -0.250713 0.168104 -0.125939 0.529407 0.028566 0.064005 0.395746 0.271850 -0.531512 -0.300362 -0.315072 0.298590 -0.718889 -0.869305 -0.138025 0.342099 0.034196 0.285449 0.186546 0.685935 0.253509 0.279111 0.403273 -0.099532 -0.220942 0.451096 -0.417002 -0.644501 0.401541 -0.210952
GAT 0.288566 -0.410721 0.313083 -0.732309 0.596279 -0.343420 -0.745285 -0.181559 0.554155 -0.780104 -0.919656 -0.164555 0.014978 -0.250075 -0.077706 0.067282 0.049453 -0.186036 0.904324 -0.201308 0.437020 0.383050 -0.219487 0.035415 0.021033 0.094850 0.097621 0.100042 0.086575 -0.379904 -0.057534 -0.019813 -0.723231 -0.351939 0.112045 0.109711 0.171227 -0.201682 -0.318820 -0.288230 -0.330358 0.084498 -0.182737 -0.350367 0.133012 0.387148 -0.059159 0.276949 0.148619 -0.158047
TGA 0.346263 0.145311 0.559941 -0.435800 0.298185 0.125388 -1.037943 -0.658168 0.211644 -0.362375 -0.349707 0.304633 0.208519 0.025611 -0.064295 0.032916 -0.330427 -0.018100 0.201226 0.206351 -0.116996 0.408457 -0.682750 0.204835 0.281350 -0.486413 -0.542246 0.006860 0.436070 -0.077964 0.063224 -0.450874 -0.218329 -0.530410 0.673767 -0.254247 -0.036804 0.308047 -0.364832 -0.374056 -0.548370 -0.125719 -0.228836 -0.229846 0.491787 0.099809 0.079042 -0.124753 0.192797 -0.456740
GGG -0.046013 0.472855 -0.491373 0.169566 0.398757 -0.580862 -0.529446 0.047660 0.160849 -0.104412 0.563841 -0.644119 0.289269 -0.670811 -0.265664 -0.160833 -0.279796 -0.979545 0.074797 0.424822 -0.184199 -0.652605 0.506178 -0.979168 0.689807 0.511344 0.589631 0.336860 0.436592 0.469891 -0.023637 0.472831 -0.659293 0.059945 -0.070738 0.281664 0.203210 -0.777049 -0.295281 0.518088 -0.684653 -0.796325 0.310188 0.039465 0.345541 -0.757988 0.051701 0.857615 -0.357004 -0.279151
AAC -0.434689 0.353226 0.051193 0.429085 0.184755 0.371156 0.497212 0.228299 -0.300321 0.402462 -0.200152 0.547289 0.325071 0.064842 0.249448 -0.063222 0.215028 0.795739 -0.842330 -0.136155 -0.441051 -0.102975 -0.206622 0.111517 0.358233 -0.145325 -0.080702 0.127304 -0.484487 -0.477939 -0.136315 0.464552 0.022028 -0.499196 0.449881 -0.572258 0.181789 -0.135004 0.464654 -0.101725 0.112460 -0.215691 -0.371258 -0.016983 0.177740 -0.147455 0.020649 -0.004308 -0.606000 -0.689610
ACA -0.343463 0.451374 -0.314854 0.764895 0.310873 0.114102 0.746966 0.567951 -0.083447 0.448801 -0.575549 0.742001 0.264905 -0.143805 -0.303906 -0.178454 0.112388 0.407192 -0.276947 -0.068101 -0.156393 -0.010530 -0.481898 0.006497 -0.184918 -0.439213 -0.179462 0.000061 -0.665896 -0.730700 0.179695 -0.124297 -0.138453 -0.846519 0.047286 0.182030 0.207481 0.284505 -0.115555 0.022834 0.254976 0.233703 -0.147455 0.352517 0.709731 -0.294694 0.097435 -0.216526 -0.041719 -1.095760
TTA -0.411291 -0.875465 -0.575102 -0.113217 0.795857 0.017393 -0.259260 0.407938 -0.086938 -0.305246 -0.650569 -0.504668 0.454113 0.124548 -0.103788 0.097481 -0.303665 -0.030640 -0.661456 0.408149 -0.410282 0.285261 0.263036 0.139431 -0.163569 -0.043602 -0.122110 0.193492 -0.043251 -0.355617 -0.039737 0.179024 0.177460 0.171645 -0.231929 -0.031913 -0.564730 0.466707 0.143893 0.508885 0.559198 0.611058 -0.183614 -0.416922 -0.387775 0.595068 -0.239983 -0.321732 0.339874 -0.378920
TTC 0.424634 -0.704281 0.178828 0.028098 -0.282817 -0.547542 -0.293760 0.096970 0.223577 -0.043938 0.220044 -0.077582 0.431274 0.847440 -0.010115 0.331413 -0.317153 0.253619 -0.140598 -0.210650 0.712428 0.178995 0.077011 -0.136912 0.062126 0.233993 -0.312324 0.049605 -0.263209 0.002803 0.575572 0.191392 0.732783 0.745979 -0.592715 0.038661 -0.324945 -0.210487 -0.368686 -0.319215 0.534183 0.458849 -0.388088 0.320390 -0.532477 0.379703 0.393799 -0.145525 -0.102676 -0.282819
ACC -0.782673 0.128163 0.250205 0.868092 -0.689657 0.233167 0.653153 0.413661 0.010479 0.432007 -0.127714 0.649766 0.449999 0.069542 0.628731 -0.110903 0.864652 0.526366 -0.186208 -0.215447 -0.290110 0.152687 0.291432 0.029110 0.065080 -0.430550 0.254659 0.367858 0.057689 -0.319578 -0.529955 0.156101 -0.179799 -0.163685 0.343447 -0.357154 0.067958 -0.024637 -0.033044 0.055209 0.243392 0.102930 -0.193288 0.164612 0.043611 0.509039 0.081615 0.294281 -0.175510 -0.277394
TAA -0.212224 -0.049459 -0.570887 -0.504307 0.918645 0.332704 -0.080983 0.162715 -0.453061 -0.151848 -0.823740 -0.242643 0.093588 0.356883 0.074790 0.063459 -0.237249 0.371602 -0.703195 0.121157 -0.700418 -0.024817 0.250195 0.653456 0.269561 -0.099223 0.270017 0.176242 -0.549323 -0.119268 -0.216859 0.225821 0.110510 -0.301065 0.099823 -0.142436 -0.055659 0.278565 0.423187 0.429366 0.527469 0.260587 0.156767 -0.487997 -0.276086 0.134923 -0.385038 -0.649697 -0.192555 -0.232127
CAT 0.244781 -0.223581 0.046279 0.307350 -0.090961 0.043318 0.202004 1.048629 0.030726 -0.293154 -0.585401 0.165115 -0.555979 -0.123711 -0.146761 -0.084677 0.215864 0.391216 0.306975 -0.181827 0.369153 -0.500621 -0.549660 0.189811 -0.090273 0.036237 -0.335631 -0.076775 -0.225647 -0.057367 0.286956 -0.021533 -0.545520 -0.304159 -0.243171 0.934158 -0.150865 -0.035758 -0.412550 0.352487 0.350875 0.346432 -0.266381 0.656116 0.008017 0.279511 0.108004 -0.384857 0.306503 -0.398352
CTT 0.033519 -0.894724 0.198953 0.069034 -0.450359 -0.560631 -0.365934 0.052749 0.326444 0.203845 0.523130 -0.381060 0.174113 0.195217 -0.085311 0.143505 -0.210249 0.688873 -1.047759 0.323753 -0.081996 0.338410 0.152684 -0.217088 0.120236 -0.099532 -0.837879 -0.153895 0.150086 0.001635 0.104785 0.070945 0.529183 0.622698 -0.242405 -0.260175 -0.511188 0.257417 -0.282502 0.246832 0.362323 0.198091 -0.252458 0.106960 -0.223452 0.733794 -0.013030 -0.223973 0.080499 -0.147658
GCA 0.096907 0.228157 -0.128644 -0.048218 0.451101 0.001288 0.991907 0.300330 -0.438530 0.005713 0.602502 -0.209501 -0.798326 -0.512580 -0.138731 -0.651557 0.156663 0.194072 0.063121 -0.065795 0.386789 -0.661162 -0.833878 0.207234 -0.399575 0.240841 -0.260229 -0.229173 0.272420 -0.514112 0.089332 -0.410363 -0.296543 0.039897 -0.242006 0.286208 0.138969 -0.152673 0.411840 0.341397 0.041685 -0.064571 -0.278220 0.259846 0.356796 -0.715681 -0.232670 0.019861 0.107758 0.124825
TCA 0.507366 -0.022250 0.219201 -0.093623 -0.111683 -0.889274 0.473494 0.582991 0.214564 0.090975 -0.239139 0.170605 -0.018911 0.628057 -0.380912 -0.083542 0.036652 0.651390 0.134041 -0.327157 0.372338 -0.127058 -0.546278 -0.298062 0.201429 0.445105 -0.083260 0.028150 -0.705922 -0.084317 0.372042 -0.046434 0.388581 0.040219 -0.261035 0.453254 0.160812 0.007143 -0.136550 -0.376096 0.491740 0.543727 0.007451 0.864117 -0.131025 -0.313109 0.231414 -0.425516 -0.394066 -0.053331
ATC 0.645643 -0.570663 0.013333 -0.037545 0.065189 -0.193462 -0.060632 0.114132 0.294157 -0.361565 -0.579052 0.140601 -0.638814 0.579687 0.062731 0.498318 0.424164 0.454944 0.466054 -0.673172 0.736963 -0.099595 -0.106049 0.372471 0.233672 0.176037 0.374485 0.046110 -0.582786 0.154995 0.291943 0.280069 -0.456616 -0.400462 -0.508113 0.233114 0.159055 -0.562437 -0.152299 -0.158536 0.363128 0.076561 -0.232280 0.426857 -0.181031 0.300829 0.207192 -0.233486 -0.058101 -0.004433
GGT 0.221247 0.273102 -0.332925 0.334734 0.095654 -0.255270 -0.300646 0.096840 -0.132358 -0.131458 -0.067915 -0.236814 0.696394 0.061720 -0.329661 0.119601 -0.744713 -1.187011 0.434859 0.259074 -0.438379 -0.298098 0.236460 -0.801667 0.460803 0.400678 0.411629 0.035025 0.178540 0.664779 0.111612 0.172367 0.609946 0.057554 0.493857 0.372984 -0.075848 0.181130 -0.005350 0.221666 -0.225747 -0.258664 0.491886 -0.117714 0.000697 -0.509547 0.208111 0.057631 -0.113654 0.165517
GTT 0.021905 -0.330912 -0.185512 0.051545 0.248383 -0.116416 -0.370570 0.133048 -0.054271 -0.390358 -0.047232 -0.299946 0.942816 0.628553 -0.359981 0.206177 -0.692305 -0.944690 0.075029 0.556649 -0.057237 0.013225 -0.189599 -0.372526 0.016042 0.309495 -0.063429 0.081203 0.406846 0.148834 0.334085 -0.155210 0.940079 0.516416 0.336439 0.111406 -0.488404 0.410583 0.078276 -0.202723 0.124749 0.465023 -0.185881 -0.103587 -0.246049 -0.083953 0.182456 -0.083724 0.233763 0.124750
CCC -0.609603 0.304895 0.566279 0.416933 -1.487336 0.401057 0.220392 0.283073 -0.012283 0.374009 0.407642 0.575421 0.159964 0.366120 0.976196 -0.254541 1.299018 0.117682 0.116039 -0.465122 0.379273 -0.213735 0.643076 0.467228 -0.138744 -0.609110 0.522497 0.452551 0.673968 0.077711 -0.674857 0.011064 -0.395265 0.574572 0.007229 -0.175400 0.038423 -0.520801 -0.424641 0.072786 0.407098 0.429133 -0.170911 0.669912 -0.535310 0.873153 -0.025581 0.237129 -0.196172 0.152821
CAG 0.146183 0.211489 -0.002408 0.138383 0.255950 -0.407423 0.824541 0.002044 0.132563 0.544931 0.431746 0.196948 0.100014 -0.258263 -0.360824 -0.653861 0.309817 -0.825709 0.368386 -0.120802 0.527631 -0.197583 -0.277202 -0.231715 -0.396538 -0.256269 0.104953 -0.044363 0.106428 -0.653501 -0.003251 -0.525612 0.112411 -0.131122 -0.236162 0.126820 0.306825 0.067588 0.087483 -0.062726 0.343335 0.516325 0.134581 0.984240 0.428441 -0.484888 -0.158750 -0.413589 -0.336520 0.105023
TCT 0.809534 -0.790211 -0.096766 0.102120 -0.456590 -0.935115 -0.437249 -0.507574 0.424507 -0.155264 0.287894 -0.402798 -0.245688 0.987470 -0.060366 0.620883 -0.425464 0.728951 -0.275766 -0.124030 0.486530 0.321173 0.430721 0.241096 0.379979 -0.108813 -0.050705 -0.346258 -0.376562 0.170008 0.333739 -0.093660 0.727968 0.167649 -0.310305 0.087786 -0.126311 -0.067383 -0.497276 0.341050 0.438678 -0.287398 -0.049455 -0.183108 0.089553 0.520929 0.201587 -0.468621 0.261544 0.122006
GTG 0.335570 0.656190 0.066082 0.121282 -0.132279 0.413687 -0.484422 -0.153388 -0.131736 -0.232918 0.252516 -0.097746 0.380904 0.267173 -0.438625 0.040197 -0.402609 -0.910135 0.553387 0.811678 0.184240 -0.296468 -0.670002 -0.069780 0.143316 0.470481 0.202572 -0.281016 0.574819 0.513090 0.066033 -0.231091 0.511750 -0.050565 1.103210 -0.013244 0.102682 0.528962 0.194696 -0.257782 -0.806446 -0.372843 0.364682 -0.261039 0.364711 -0.316181 -0.213140 0.056557 0.177709 0.452506
TGT 0.699927 -0.179453 0.360238 -0.002200 -0.223209 0.059540 -0.432208 0.146315 0.145040 -0.281199 -0.596655 -0.069242 0.260076 0.321571 -0.169523 0.093977 -0.922696 -0.363611 0.470540 0.581312 -0.229393 -0.274058 -0.450516 -0.028303 0.315679 0.238353 -0.370986 -0.288262 0.394686 0.593141 0.013625 -0.153160 0.911253 -0.041794 0.983567 0.600510 -0.317365 0.657619 -0.010331 -0.087025 0.051207 -0.153718 0.163874 -0.291209 -0.018294 0.291974 0.033234 -0.438040 0.566675 0.501937
AGC -0.268054 -0.003562 0.022732 -0.496949 0.308964 -0.019922 0.794242 -0.562997 -0.064991 0.084331 0.693814 -0.266537 -0.749373 -0.609479 -0.138143 -0.442318 0.358626 -0.318701 -0.033687 -0.257836 -0.089628 0.094559 0.224654 0.121836 -0.578433 -0.533181 -0.178075 -0.260797 0.067445 -0.599904 -0.063934 -0.716884 -0.211420 0.087395 -0.528417 -0.091546 0.055358 0.043026 0.440774 0.107005 0.232067 0.379895 -0.133792 0.393254 0.104694 -0.544448 -0.187422 -0.496763 -0.219796 0.807604
TCC 0.413374 -0.382639 0.414661 0.290914 -0.972027 -0.237074 -0.075667 -0.006998 0.193926 0.228562 0.110884 0.403289 0.070988 0.862409 0.563784 0.223325 0.446740 0.151360 0.241273 -0.563658 0.656194 -0.037575 0.361988 0.216280 0.145964 -0.143679 0.391165 0.269250 0.025651 0.325072 -0.033846 0.239067 0.320298 0.367636 -0.301616 0.044529 -0.053862 -0.470810 -0.354585 -0.160431 0.594170 0.250437 -0.113171 0.649555 -0.617135 0.606513 0.333827 -0.202070 -0.074044 0.218713
CAC -0.187529 0.201615 0.343891 1.041742 -0.489269 -0.252992 1.085616 0.768096 -0.301735 0.513972 0.387310 0.565335 0.013812 0.026009 0.373696 -0.569964 0.472669 1.143525 0.049904 -0.318204 0.218979 0.045622 -0.615611 -0.174134 -0.218742 0.168012 -0.222791 0.161787 -0.191897 -0.603644 -0.049093 -0.030981 0.122829 -0.048061 0.049568 0.005691 0.119513 0.211337 0.077517 0.027819 0.035250 -0.013530 -0.174310 0.326962 0.183559 -0.055975 0.210848 0.169160 -0.126338 -0.465489
CCT -0.092853 -0.234375 0.316668 0.277138 -1.215132 -0.265391 -0.248042 -0.000528 0.058913 0.223495 0.547865 0.037087 -0.064104 0.499493 0.542215 0.184542 0.585561 0.675472 -0.530621 -0.154199 -0.045880 0.200247 0.533126 0.278354 0.243545 -0.414163 0.033021 0.071835 0.384208 0.268533 -0.363694 -0.114600 0.131782 0.366957 0.097818 -0.212885 -0.129143 -0.171511 -0.484260 0.524700 0.243642 -0.049706 0.040288 0.234566 -0.184913 0.865473 0.002419 -0.093289 0.163213 0.231987
GGC -0.450725 0.465371 -0.329801 -0.105964 -0.180214 -0.153356 0.301028 0.226892 -0.153908 -0.278774 0.965727 -0.672712 -0.663815 -0.757999 -0.227705 -0.256922 0.284629 -0.115274 -0.036295 0.139252 -0.052061 -0.559094 0.191724 -0.328630 -0.093036 0.276449 0.059841 -0.170040 0.354223 0.248516 -0.048237 -0.147595 -0.713033 0.501369 -0.299080 0.237831 0.171661 -0.453049 -0.078698 0.395738 -0.516213 -0.378140 0.043239 -0.119762 0.238494 -0.586665 -0.169256 0.642151 -0.264961 0.316076
AGT 0.298578 -0.069840 -0.353559 -0.146601 0.603181 -0.036903 -0.034021 -0.266195 -0.109980 0.410986 -0.057712 0.104962 0.475959 0.539922 -0.354125 -0.028073 -0.100130 -0.981846 -0.115715 0.639269 -0.093192 0.220892 -0.451261 0.043542 -0.227320 0.122445 0.504268 0.285030 0.249022 -0.034270 0.001005 -0.307573 0.643907 -0.318326 0.157280 -0.133295 -0.065119 0.479501 0.488188 -0.066916 0.127052 0.413416 0.484052 0.535179 -0.033223 -0.376522 -0.180032 -0.528351 0.631270 0.543192
ACT 0.074214 -0.473182 0.072539 0.635242 -0.104262 -0.472662 0.245108 -0.026410 0.369888 0.739323 0.053446 0.098897 0.150457 -0.005736 0.114554 -0.086888 -0.163781 1.217137 -0.882039 0.433579 -0.309534 0.374604 0.024688 -0.059607 0.355859 -0.219106 -0.469591 -0.024626 -0.361438 -0.180910 -0.263325 0.245505 0.411702 -0.318159 0.107080 -0.391936 -0.026336 0.507588 -0.060837 0.175317 0.261113 -0.422929 0.120700 -0.297193 0.421977 0.521585 -0.109440 -0.190375 -0.038972 -0.476323
CTA -0.018863 -0.212986 -0.670612 0.240687 -0.098637 -0.090827 0.020143 -0.298898 -0.244007 0.435865 0.316208 -0.256501 -0.371695 0.350698 0.357371 0.026183 0.054285 0.831402 -0.485887 0.047446 -0.125240 0.434667 0.750017 0.690193 -0.109400 -0.427164 0.376874 0.065369 -0.446253 0.186280 -0.315560 0.004922 0.089709 0.027099 -0.607219 -0.236942 0.075022 0.515469 -0.227366 0.814984 0.313684 -0.189962 0.721854 -0.654202 -0.011793 0.584574 -0.371319 -0.400155 0.219680 -0.192758
CTC 0.361570 -0.420867 0.249287 0.280121 -1.155096 -0.719538 0.213077 -0.247663 0.522738 0.443561 0.646880 0.047955 -0.503290 0.453496 0.004067 0.382983 0.396232 0.991918 -0.368605 -0.368900 0.291411 0.203922 0.398232 -0.154616 0.355354 -0.149742 -0.118174 -0.271751 -0.571934 0.588186 0.044576 0.162781 0.296781 0.271662 -0.446184 -0.220318 0.164203 -0.071495 -0.393374 -0.140362 0.321685 -0.151008 0.196601 0.355880 -0.063932 0.390772 0.170469 -0.239962 -0.523464 0.317189
CGA -0.538504 -0.180126 0.215952 -0.208961 -0.132455 0.459473 0.355493 -0.385889 0.352735 -0.060350 -0.478654 0.557593 -0.147958 -0.538501 -0.017453 0.650481 0.502320 0.001119 0.257172 -0.501895 -0.166313 0.651523 -0.040298 -0.357931 -0.549646 0.070339 -0.036736 -0.087028 -0.333405 -0.164398 0.112011 0.288715 -0.519565 -0.253421 -0.198094 -0.490368 0.200829 -0.473611 0.388128 -1.051924 -0.460590 -0.090030 -0.373089 -0.271708 -0.081974 -0.204871 0.341767 0.946537 0.204175 0.338765
TAC -0.387506 -0.503428 -0.420999 1.188848 -0.030211 0.114208 0.361511 0.409319 -0.233154 0.407649 -0.358956 0.291060 0.246700 -0.177768 0.248110 -0.070639 0.096767 0.361131 -0.239086 0.027802 -0.478682 0.559370 0.405333 -0.101231 -0.166992 -0.387840 0.144137 0.159715 -0.376228 -0.153863 -0.266455 0.262775 0.243393 -0.381710 -0.033094 -0.055667 -0.278086 0.804976 0.057930 0.689285 0.256097 0.036736 0.355367 -0.505170 -0.018110 0.647093 0.049759 -0.307885 0.341847 -0.446539
TGC 0.095309 0.257477 0.295081 -0.166441 -0.421809 0.353611 0.168031 -0.041113 -0.073951 -0.398733 0.532878 -0.347818 -0.639733 -0.198702 -0.083011 -0.493678 -0.212552 0.351420 0.277125 0.380826 0.369540 -0.670669 -0.538029 0.502687 -0.070258 -0.194385 -0.643395 -0.558247 0.600996 0.324503 -0.151883 -0.499817 0.027154 0.590926 0.415174 0.191145 -0.080755 0.549702 -0.101842 -0.036589 -0.059300 -0.072010 -0.249920 -0.607775 0.262448 0.153641 -0.374364 -0.122496 -0.175166 0.214106
TAG 0.049661 -0.399242 -0.629085 -0.506948 0.827992 -0.246855 -0.021700 -0.343979 -0.005258 0.349383 -0.152217 -0.597588 0.007845 -0.323616 -0.134666 -0.135723 -0.111710 -0.660568 -0.201190 0.400331 -0.248752 0.482193 0.550132 0.199668 -0.471498 -0.006021 0.479922 0.082529 0.021071 -0.451557 -0.316251 -0.175244 0.116467 -0.219285 -0.450623 -0.000197 0.006566 0.322067 0.292895 0.807836 0.239864 0.147824 0.759010 -0.017213 -0.055698 0.086277 -0.583762 -0.439266 0.707464 0.546096
GCC -0.589846 0.586132 0.407211 -0.186682 -0.986515 0.581361 0.231816 0.221220 -0.402647 -0.090692 0.831000 -0.023100 -0.533917 -0.498295 0.366452 -0.404533 0.697924 -0.218665 0.223699 -0.271579 -0.069473 -0.357397 0.212316 0.134894 -0.469026 -0.243081 -0.115649 -0.062797 0.762880 0.248502 -0.310931 -0.379787 -0.524963 0.723373 -0.015690 0.119191 -0.032821 -0.233939 -0.062148 0.127993 -0.268097 0.233826 -0.050803 0.304731 -0.380646 0.023691 -0.132867 0.245412 -0.134052 0.632714
GAC -0.463052 0.429292 0.171484 0.407261 -0.390990 0.116023 0.042359 -0.232635 0.346770 0.511028 -0.101143 0.674579 0.464086 -0.366223 -0.032988 0.269135 0.202823 0.292994 0.008908 -0.075611 -0.190426 0.755804 -0.030033 -0.328426 -0.347443 -0.284985 -0.282319 -0.023191 -0.211140 -0.387180 0.046362 -0.083719 -0.296935 -0.460233 0.066114 -0.410584 0.329682 0.028624 -0.399708 -0.518658 -0.606538 -0.295320 0.083966 -0.100596 0.659402 0.035147 0.157609 0.812833 0.208376 -0.674117
GTA 0.172102 -0.162078 -0.374320 0.401028 0.767974 0.544055 0.154419 0.064416 -0.304194 0.362035 -0.700259 0.018684 0.254876 -0.136350 0.124024 -0.109107 -0.478160 -0.753353 0.339147 0.470040 -0.649876 0.118232 0.356396 0.008756 0.027011 0.153404 0.472762 0.254777 -0.176965 0.308503 -0.255458 0.195984 0.539468 -0.531616 0.247439 0.213534 -0.174616 0.699631 0.646061 0.250217 0.167287 -0.109299 0.769772 -0.330561 -0.243977 0.026965 -0.130863 -0.590579 0.375653 0.520216
CTG 0.493783 -0.088261 0.562691 0.204761 -0.566091 -0.504992 -0.280992 -0.633219 0.302306 -0.268518 0.584232 -0.221903 -0.410776 0.105452 0.234804 -0.087302 -0.219729 0.601768 -0.021748 0.116979 -0.082307 -0.133952 -0.043746 0.173921 0.751280 -0.502622 -0.396986 -0.382971 0.538313 0.173922 -0.277282 -0.463675 0.210785 -0.191172 0.856603 -0.080736 0.023561 0.099142 -0.299957 0.374203 -0.190138 -0.840089 -0.243816 -0.429380 0.722051 0.274213 0.030889 -0.254716 -0.103474 0.281541
GCT 0.132935 -0.245849 -0.048433 -0.271013 -0.293556 -0.286450 -0.074796 -0.632146 0.031616 -0.116465 1.145217 -0.667617 -0.867440 -0.324688 -0.180017 -0.201574 -0.192734 0.439796 -0.292570 0.045430 -0.093635 0.028703 0.233671 0.041526 0.079293 -0.403501 -0.568952 -0.489714 0.047704 0.528674 -0.035527 -0.340261 -0.030998 0.533563 -0.369323 -0.233973 -0.058526 0.560686 -0.173421 0.329999 -0.117606 -0.205539 0.217680 -0.499932 0.147060 0.056718 -0.254575 -0.376448 -0.537530 0.290093
CCG -0.789548 0.004783 0.432509 0.347632 -0.811978 0.718661 0.556961 0.049750 -0.081340 -0.134154 0.216513 0.270983 0.099321 -0.166856 0.651634 0.184454 0.725325 -0.231953 0.729283 -0.495700 -0.016463 0.163676 0.538445 -0.235167 -0.337093 0.156283 0.357418 0.177242 0.172726 0.230652 -0.272944 0.324070 -0.192319 0.579514 0.034134 -0.405720 -0.006410 -0.245941 0.366051 -0.640546 -0.237521 0.056991 -0.228724 -0.252894 -0.649410 0.207912 0.243984 0.781007 -0.395132 0.718937
CGG -0.382289 0.168434 -0.135988 0.522897 -0.191691 0.165468 0.215310 0.030417 -0.125901 -0.369213 0.496160 -0.214804 -0.049288 -0.665853 -0.011844 0.242656 0.015968 -0.448778 0.687627 -0.525260 0.046751 -0.085682 0.530969 -0.885013 0.042871 0.504534 0.240810 -0.169733 -0.272074 0.325960 0.272011 0.569137 -0.373963 0.316254 -0.208134 -0.108379 0.160824 -0.410912 0.123606 -0.152301 -0.724641 -0.571347 -0.040761 -0.482304 -0.092487 -0.466997 0.354022 0.898328 -0.759239 0.015854
TCG 0.286437 -0.478862 -0.064700 0.059459 -0.588190 0.284625 -0.117890 -0.073775 0.236357 -0.219128 -0.084357 0.096976 -0.356716 0.112895 -0.353696 1.226303 0.042355 -0.202814 0.252445 -0.545887 0.356312 0.188699 0.130149 -0.434956 -0.129308 0.636723 -0.026569 -0.509431 -0.672469 0.704776 0.705917 0.616682 0.090629 0.085231 -0.404823 -0.075740 0.062956 -0.571675 0.100949 -0.623478 -0.321107 -0.299418 -0.061626 0.062002 -0.359068 0.005797 0.429250 0.484981 0.045581 0.484315
GCG -0.582913 0.451864 -0.111784 -0.146728 -0.238451 0.524080 0.653148 -0.386027 -0.083249 -0.547096 0.646726 -0.456998 -0.599144 -0.852063 -0.343318 0.183833 -0.069098 -0.544681 0.681636 -0.224916 0.131895 -0.118841 0.452337 -0.261954 -0.658888 0.150998 -0.156805 -0.772914 -0.057788 -0.053727 0.277391 -0.319842 -0.157510 0.549198 -0.134996 0.048727 0.181096 -0.219775 0.333623 -0.392850 -0.608312 -0.345202 -0.238236 -0.790855 0.223760 -0.651449 0.032342 0.675160 -0.289439 0.829919
GTC 0.538827 0.179488 0.104527 0.180753 -0.954382 -0.336037 0.145836 0.057560 0.047435 0.086736 -0.107201 0.262739 0.133897 0.669825 -0.253111 0.647333 -0.226132 -0.377034 0.440652 -0.288362 0.053264 0.009870 -0.007650 -0.411247 -0.013570 0.506419 0.377900 -0.345323 -0.267052 0.501179 0.315832 0.035047 0.926886 0.008489 0.360895 0.435570 0.139383 -0.155687 0.048331 -0.227140 -0.037218 -0.173751 0.372907 0.421392 -0.203827 -0.303631 0.390533 -0.020521 0.408876 0.879175
ACG -0.409936 0.500431 -0.022434 0.713878 -0.018380 0.591999 0.303415 0.084337 -0.841852 0.173157 0.287293 0.585648 0.180997 -0.418615 0.225753 0.070509 -0.010571 0.302923 0.245117 -0.635521 -0.250012 0.704951 -0.296865 -0.490459 -0.562981 0.448825 -0.031731 -0.012479 -0.459477 -0.356339 0.328389 0.371372 0.025789 -0.213699 0.068921 -0.498878 0.165346 0.121795 0.521704 -0.230539 -1.039809 -0.495985 0.130925 -0.632567 -0.075421 -0.496505 0.371492 0.748355 0.004347 -0.489860
CGC -0.254959 0.246988 0.242895 0.233030 -1.047997 0.738352 0.615149 -0.016078 -0.787030 -0.070605 1.169055 0.111044 -0.900095 -0.502578 0.364119 0.100554 0.343509 0.229270 0.439056 -1.030341 0.184694 0.057986 0.079101 -0.060939 -0.749188 0.154317 -0.409022 -0.553415 -0.018101 0.314909 0.285216 -0.039463 -0.100977 0.720185 -0.424992 -0.167285 0.056599 -0.157642 0.239042 0.001732 -0.550830 -0.267200 -0.006608 -0.256580 -0.430939 -0.152121 0.203779 0.475549 -0.209483 0.486321
CGT -0.222156 0.170059 0.011369 0.552731 -0.613797 0.827537 0.234862 0.166251 -0.351291 -0.201769 0.070782 0.094020 0.312545 0.503205 -0.020544 0.669669 -0.115027 -0.384085 0.568716 0.021782 0.231473 0.260766 0.215772 -0.066544 -0.469059 0.672172 0.262310 -0.362021 -0.294479 0.228334 0.392673 0.154043 0.897495 0.390985 0.383997 -0.099329 -0.102502 0.181766 0.533248 -0.591221 -0.410821 -0.118449 0.048387 -0.491570 -0.421948 0.032320 0.228645 0.277354 0.177317 0.794141
<unk> 0.005486 0.002324 0.000073 -0.008303 0.019659 0.000660 -0.004484 -0.002208 0.002065 0.003373 -0.012842 0.001647 0.005025 0.000703 -0.005562 -0.005254 -0.001879 0.005624 -0.003573 0.006379 -0.004126 -0.005124 -0.003304 0.003067 0.009383 -0.008025 0.001776 0.011933 -0.003121 -0.007382 0.002657 0.002068 -0.006750 -0.005549 -0.005031 0.005746 0.005769 -0.010366 0.000073 0.001554 0.006307 0.005970 -0.003944 0.003304 -0.000272 -0.001185 -0.005650 -0.007310 -0.002978 -0.010654
